
\data\
ngram 1=10
ngram 2=20
ngram 3=25

\1-grams:
-99.000000 <s> -99
-1.083466  [_CC_] -99
-1.062175  [_IN__NN_] -99
-1.033275  [_JJ_] -99
-1.014230  [_NNP_] -99
-1.514571  [_NNS_] -99
-0.591389  [_NN_] -99
-1.798501  [_NN__PRPS_] -99
-3.268610  [_RP__NN_] -99
-1.555578  [_VBP_] -99

\2-grams:
-3.602169  <s> [_JJ_] -99
-0.783943  <s> [_NNP_] -99
-2.522987  <s> [_NNS_] -99
-1.989385  <s> [_NN_] -99
-1.042108  [_CC_] [_NNP_] -99
-1.811325  [_IN__NN_] [_NN__PRPS_] -99
-0.946757  [_JJ_] [_CC_] -99
-1.062932  [_JJ_] [_NN_] -99
-0.947161  [_NNP_] [_CC_] -99
-1.145258  [_NNP_] [_NN_] -99
-1.834604  [_NNP_] [_VBP_] -99
-1.123319  [_NNS_] [_CC_] -99
-0.803196  [_NNS_] [_NN_] -99
-1.309621  [_NN_] [_CC_] -99
-1.137875  [_NN_] [_NNP_] -99
-0.565494  [_NN_] [_NN_] -99
-0.820216  [_NN__PRPS_] [_PUNC_] -99
-2.072541  [_RP__NN_] [_NN__PRPS_] -99
-0.721220  [_VBP_] [_IN__NN_] -99
-3.332943  [_VBP_] [_RP__NN_] -99

\3-grams:
-0.946757  <s> [_JJ_] [_CC_]
-1.062932  <s> [_JJ_] [_NN_]
-3.138114  <s> [_NNP_] [_CC_]
-3.336211  <s> [_NNP_] [_NN_]
-2.158260  <s> [_NNS_] [_CC_]
-1.838137  <s> [_NNS_] [_NN_]
-1.240785  <s> [_NN_] [_CC_]
-0.498841  <s> [_NN_] [_NN_]
-1.373513  [_CC_] [_NNP_] [_VBP_]
-0.820216  [_IN__NN_] [_NN__PRPS_] [_PUNC_]
-1.213612  [_JJ_] [_CC_] [_NNP_]
-1.200977  [_JJ_] [_NN_] [_NNP_]
-0.438306  [_NNP_] [_CC_] [_NNP_]
-1.100371  [_NNP_] [_NN_] [_NNP_]
-0.617044  [_NNP_] [_VBP_] [_IN__NN_]
-3.253798  [_NNP_] [_VBP_] [_RP__NN_]
-1.648360  [_NNS_] [_CC_] [_NNP_]
-1.218360  [_NNS_] [_NN_] [_NNP_]
-1.419018  [_NN_] [_CC_] [_NNP_]
-2.012837  [_NN_] [_NNP_] [_VBP_]
-1.239285  [_NN_] [_NN_] [_NNP_]
-0.499899  [_NN__PRPS_] [_PUNC_] </s>
-0.820216  [_RP__NN_] [_NN__PRPS_] [_PUNC_]
-1.811325  [_VBP_] [_IN__NN_] [_NN__PRPS_]
-2.072541  [_VBP_] [_RP__NN_] [_NN__PRPS_]

\end\
