
\data\
ngram 1=45
ngram 2=327
ngram 3=926

\1-grams:
-99.000000 <s> -99
-1.083466  [_CC_] -99
-2.569147  [_CC__CC_] -99
-3.363208  [_CC__CC__PRP_] -99
-2.549796  [_CC__JJ_] -99
-2.125574  [_CC__NNP_] -99
-1.761148  [_CC__NN_] -99
-2.271777  [_CC__PRP_] -99
-1.669455  [_CC__VBD_] -99
-2.816371  [_CC__VBN_] -99
-2.096211  [_CC__VBP_] -99
-1.523386  [_CD_] -99
-4.712114  [_FW_] -99
-0.874581  [_IN_] -99
-2.508976  [_IN__CC_] -99
-2.576528  [_IN__JJ_] -99
-1.807475  [_IN__NNP_] -99
-4.517328  [_IN__NNP__PRPS_] -99
-2.013800  [_IN__NNS_] -99
-1.062175  [_IN__NN_] -99
-2.159150  [_IN__NN__PRPS_] -99
-4.110163  [_IN__NN__PRP_] -99
-2.197200  [_IN__PRP_] -99
-1.033275  [_JJ_] -99
-1.014230  [_NNP_] -99
-1.514571  [_NNS_] -99
-2.860961  [_NNS__PRPS_] -99
-0.591389  [_NN_] -99
-1.798501  [_NN__PRPS_] -99
-99.000000 [_NO_FUNC_] -99
-1.754840  [_PRP_] -99
-0.970398  [_PUNC_] -99
-2.369047  [_RB_] -99
-2.114432  [_RP_] -99
-4.400497  [_RP__NNP_] -99
-4.414738  [_RP__NNS_] -99
-3.268610  [_RP__NN_] -99
-3.648821  [_RP__VBD_] -99
-2.350904  [_RP__VBP_] -99
-1.367670  [_VBD_] -99
-2.587778  [_VBD__PRP_] -99
-2.251230  [_VBN_] -99
-1.555578  [_VBP_] -99
-2.703830  [_VBP__PRP_] -99
-1.924195  [_WP_] -99

\2-grams:
-0.306162  <s> [_CC__VBD_] -99
-1.677889  <s> [_CC__VBN_] -99
-1.090285  <s> [_CC__VBP_] -99
-1.633686  <s> [_IN_] -99
-3.602169  <s> [_JJ_] -99
-0.783943  <s> [_NNP_] -99
-2.522987  <s> [_NNS_] -99
-1.989385  <s> [_NN_] -99
-2.522987  <s> [_PUNC_] -99
-2.259746  <s> [_RP_] -99
-2.699079  <s> [_VBD_] -99
-1.886165  <s> [_VBN_] -99
-2.824017  <s> [_VBP_] -99
-4.389802  <s> [_WP_] -99
-1.625810  [_CC_] [_CD_] -99
-1.493033  [_CC_] [_IN__NN_] -99
-1.466330  [_CC_] [_JJ_] -99
-1.042108  [_CC_] [_NNP_] -99
-1.353768  [_CC_] [_NNS_] -99
-0.677682  [_CC_] [_NN_] -99
-1.593933  [_CC_] [_PUNC_] -99
-0.585989  [_CC_] [_VBD_] -99
-1.012745  [_CC_] [_VBP_] -99
-2.360065  [_CC__CC_] [_JJ_] -99
-1.506193  [_CC__CC_] [_NNP_] -99
-1.506193  [_CC__CC_] [_NNS_] -99
-0.827744  [_CC__CC_] [_NN_] -99
-0.467848  [_CC__CC_] [_VBD_] -99
-1.063834  [_CC__CC_] [_VBP_] -99
-0.625249  [_CC__CC__PRP_] [_VBP_] -99
-1.134336  [_CC__JJ_] [_NN_] -99
-2.297988  [_CC__JJ_] [_NN__PRPS_] -99
-1.981327  [_CC__NNP_] [_CC__PRP_] -99
-1.206376  [_CC__NNP_] [_JJ_] -99
-1.741489  [_CC__NNP_] [_NN_] -99
-2.873651  [_CC__NNP_] [_NN__PRPS_] -99
-1.373513  [_CC__NNP_] [_VBP_] -99
-0.639966  [_CC__NN_] [_JJ_] -99
-0.627418  [_CC__NN_] [_NN_] -99
-1.615221  [_CC__NN_] [_VBP_] -99
-0.892200  [_CC__PRP_] [_NN_] -99
-2.315445  [_CC__PRP_] [_RB_] -99
-0.721606  [_CC__PRP_] [_VBD_] -99
-0.625249  [_CC__PRP_] [_VBP_] -99
-1.286832  [_CC__VBD_] [_CC_] -99
-0.671639  [_CC__VBD_] [_NNP_] -99
-0.371225  [_CC__VBD_] [_NN_] -99
-1.676545  [_CC__VBD_] [_NN__PRPS_] -99
-99.000000 [_CC__VBD_] [_NO_FUNC_] -99
-2.440647  [_CC__VBD_] [_VBD_] -99
-1.847730  [_CC__VBD_] [_VBP_] -99
-1.418669  [_CC__VBN_] [_CC_] -99
-1.258969  [_CC__VBN_] [_NNP_] -99
-0.448633  [_CC__VBN_] [_NN_] -99
-99.000000 [_CC__VBN_] [_NO_FUNC_] -99
-3.031665  [_CC__VBN_] [_VBP_] -99
-1.536769  [_CC__VBP_] [_CC_] -99
-0.875587  [_CC__VBP_] [_NNP_] -99
-1.119943  [_CC__VBP_] [_NNS_] -99
-0.400224  [_CC__VBP_] [_NN_] -99
-1.306066  [_CC__VBP_] [_NN__PRPS_] -99
-99.000000 [_CC__VBP_] [_NO_FUNC_] -99
-2.307528  [_CC__VBP_] [_VBP_] -99
-1.217905  [_CD_] [_CC_] -99
-3.365581  [_CD_] [_CC__CC_] -99
-1.888460  [_CD_] [_JJ_] -99
-2.064552  [_CD_] [_NNS_] -99
-0.625219  [_CD_] [_NN_] -99
-0.249805  [_CD_] [_PUNC_] -99
-0.029963  [_FW_] [_PUNC_] -99
-1.634395  [_IN_] [_CC_] -99
-2.319095  [_IN_] [_CC__PRP_] -99
-1.505845  [_IN_] [_CD_] -99
-1.701947  [_IN_] [_JJ_] -99
-0.932894  [_IN_] [_NNP_] -99
-1.139219  [_IN_] [_NNS_] -99
-0.187593  [_IN_] [_NN_] -99
-1.284569  [_IN_] [_NN__PRPS_] -99
-99.000000 [_IN_] [_NO_FUNC_] -99
-4.013701  [_IN_] [_VBD_] -99
-3.536579  [_IN_] [_VBP_] -99
-1.318608  [_IN__CC_] [_NNS_] -99
-0.785636  [_IN__JJ_] [_IN__NN_] -99
-0.767995  [_IN__NNP_] [_CC_] -99
-0.724781  [_IN__NNP_] [_IN_] -99
-0.902003  [_IN__NNP_] [_IN__NN_] -99
-2.936353  [_IN__NNP_] [_IN__PRP_] -99
-2.427594  [_IN__NNP_] [_NNS_] -99
-1.091802  [_IN__NNP_] [_NN_] -99
-99.000000 [_IN__NNP_] [_NO_FUNC_] -99
-3.488119  [_IN__NNP_] [_RB_] -99
-1.779777  [_IN__NNP_] [_VBD_] -99
-0.884250  [_IN__NNP__PRPS_] [_IN_] -99
-1.427636  [_IN__NNP__PRPS_] [_NN_] -99
-1.443118  [_IN__NNS_] [_NNP_] -99
-0.696945  [_IN__NNS_] [_NN_] -99
-2.226095  [_IN__NNS_] [_NN__PRPS_] -99
-1.669288  [_IN__NN_] [_CD_] -99
-0.967602  [_IN__NN_] [_IN_] -99
-1.914446  [_IN__NN_] [_IN__NNP_] -99
-1.135388  [_IN__NN_] [_IN__NN_] -99
-0.712196  [_IN__NN_] [_JJ_] -99
-1.043667  [_IN__NN_] [_NNP_] -99
-0.516935  [_IN__NN_] [_NN_] -99
-1.811325  [_IN__NN_] [_NN__PRPS_] -99
-2.689113  [_IN__NN_] [_VBD__PRP_] -99
-1.005152  [_IN__NN__PRPS_] [_CC_] -99
-0.445290  [_IN__NN__PRPS_] [_IN_] -99
-0.970037  [_IN__NN__PRP_] [_CC_] -99
-1.146128  [_IN__NN__PRP_] [_IN_] -99
-1.083627  [_IN__PRP_] [_CC_] -99
-2.183998  [_IN__PRP_] [_CC__PRP_] -99
-1.514990  [_IN__PRP_] [_CD_] -99
-0.601176  [_IN__PRP_] [_IN_] -99
-1.649689  [_IN__PRP_] [_JJ_] -99
-1.228683  [_IN__PRP_] [_NNP_] -99
-1.284541  [_IN__PRP_] [_NNS_] -99
-0.502153  [_IN__PRP_] [_NN_] -99
-99.000000 [_IN__PRP_] [_NO_FUNC_] -99
-2.213960  [_IN__PRP_] [_VBD_] -99
-2.502791  [_JJ_] [_CC__CC_] -99
-2.160369  [_JJ_] [_CC__NNP_] -99
-2.317155  [_JJ_] [_CD_] -99
-0.460259  [_JJ_] [_IN_] -99
-1.300572  [_JJ_] [_IN__NNP_] -99
-4.010425  [_JJ_] [_IN__NNP__PRPS_] -99
-1.542249  [_JJ_] [_IN__NNS_] -99
-0.645949  [_JJ_] [_IN__NN_] -99
-2.103012  [_JJ_] [_IN__PRP_] -99
-0.994636  [_JJ_] [_JJ_] -99
-1.223023  [_JJ_] [_NNP_] -99
-1.962879  [_JJ_] [_NNS_] -99
-2.979912  [_JJ_] [_NNS__PRPS_] -99
-1.062932  [_JJ_] [_NN_] -99
-2.226584  [_JJ_] [_NN__PRPS_] -99
-2.576220  [_JJ_] [_PRP_] -99
-0.739863  [_JJ_] [_PUNC_] -99
-2.275190  [_JJ_] [_RP__VBP_] -99
-1.625804  [_JJ_] [_VBD_] -99
-2.611936  [_JJ_] [_VBD__PRP_] -99
-1.749463  [_JJ_] [_VBP_] -99
-1.583132  [_JJ_] [_WP_] -99
-0.947161  [_NNP_] [_CC_] -99
-2.777108  [_NNP_] [_CC__JJ_] -99
-1.385467  [_NNP_] [_CC__NNP_] -99
-1.535561  [_NNP_] [_CC__NN_] -99
-1.990356  [_NNP_] [_CC__VBD_] -99
-2.305816  [_NNP_] [_CC__VBP_] -99
-1.239037  [_NNP_] [_CD_] -99
-0.849532  [_NNP_] [_IN_] -99
-2.348973  [_NNP_] [_IN__CC_] -99
-1.660500  [_NNP_] [_IN__NNP_] -99
-3.061104  [_NNP_] [_IN__PRP_] -99
-1.148514  [_NNP_] [_JJ_] -99
-0.583760  [_NNP_] [_NNP_] -99
-2.476078  [_NNP_] [_NNS_] -99
-1.145258  [_NNP_] [_NN_] -99
-99.000000 [_NNP_] [_NO_FUNC_] -99
-2.832625  [_NNP_] [_PRP_] -99
-0.678256  [_NNP_] [_PUNC_] -99
-4.922081  [_NNP_] [_RP__NNP_] -99
-1.618745  [_NNP_] [_VBD_] -99
-2.813320  [_NNP_] [_VBN_] -99
-1.834604  [_NNP_] [_VBP_] -99
-2.771679  [_NNS_] [_CC__NNP_] -99
-0.741282  [_NNS_] [_IN_] -99
-1.715728  [_NNS_] [_IN__NNS_] -99
-2.212371  [_NNS_] [_IN__PRP_] -99
-0.543793  [_NNS_] [_JJ_] -99
-1.446883  [_NNS_] [_NNP_] -99
-0.803196  [_NNS_] [_NN_] -99
-2.332346  [_NNS_] [_NN__PRPS_] -99
-2.771679  [_NNS_] [_PRP_] -99
-1.013904  [_NNS_] [_PUNC_] -99
-3.373740  [_NNS_] [_RP__VBD_] -99
-2.396016  [_NNS_] [_RP__VBP_] -99
-1.692498  [_NNS_] [_VBD_] -99
-2.094986  [_NNS_] [_VBN_] -99
-1.701641  [_NNS_] [_VBP_] -99
-1.726320  [_NNS__PRPS_] [_VBD_] -99
-2.704469  [_NNS__PRPS_] [_VBN_] -99
-1.726320  [_NNS__PRPS_] [_VBP_] -99
-1.309621  [_NN_] [_CC_] -99
-2.916629  [_NN_] [_CC__CC_] -99
-2.728639  [_NN_] [_CC__NNP_] -99
-1.819719  [_NN_] [_CD_] -99
-0.846207  [_NN_] [_IN_] -99
-2.689386  [_NN_] [_IN__CC_] -99
-1.793050  [_NN_] [_IN__NNP_] -99
-1.914824  [_NN_] [_IN__NNS_] -99
-1.013992  [_NN_] [_IN__NN_] -99
-2.110967  [_NN_] [_IN__NN__PRPS_] -99
-4.061980  [_NN_] [_IN__NN__PRP_] -99
-2.286117  [_NN_] [_IN__PRP_] -99
-0.695487  [_NN_] [_JJ_] -99
-1.137875  [_NN_] [_NNP_] -99
-1.467859  [_NN_] [_NNS_] -99
-2.759022  [_NN_] [_NNS__PRPS_] -99
-0.565494  [_NN_] [_NN_] -99
-1.859884  [_NN_] [_NN__PRPS_] -99
-99.000000 [_NN_] [_NO_FUNC_] -99
-2.849683  [_NN_] [_PRP_] -99
-1.020034  [_NN_] [_PUNC_] -99
-4.076371  [_NN_] [_RP__NNP_] -99
-4.090612  [_NN_] [_RP__NNS_] -99
-1.960381  [_NN_] [_VBD_] -99
-2.752773  [_NN_] [_VBD__PRP_] -99
-2.047642  [_NN_] [_VBP_] -99
-1.856719  [_NN_] [_WP_] -99
-3.077967  [_NN__PRPS_] [_CC__CC__PRP_] -99
-2.283906  [_NN__PRPS_] [_CC__PRP_] -99
-0.445290  [_NN__PRPS_] [_IN_] -99
-1.297734  [_NN__PRPS_] [_IN__NNP_] -99
-0.643083  [_NN__PRPS_] [_IN__NN_] -99
-2.082416  [_NN__PRPS_] [_IN__PRP_] -99
-0.833251  [_NN__PRPS_] [_JJ_] -99
-1.286955  [_NN__PRPS_] [_NNP_] -99
-0.989358  [_NN__PRPS_] [_NN_] -99
-2.221401  [_NN__PRPS_] [_NN__PRPS_] -99
-0.820216  [_NN__PRPS_] [_PUNC_] -99
-2.214667  [_NN__PRPS_] [_RB_] -99
-2.186639  [_NN__PRPS_] [_RP_] -99
-1.846691  [_NN__PRPS_] [_VBD_] -99
-3.136726  [_NN__PRPS_] [_VBD__PRP_] -99
-3.130687  [_NN__PRPS_] [_VBN_] -99
-1.928361  [_NN__PRPS_] [_VBP_] -99
-1.033275  [_NO_FUNC_] [_JJ_] -99
-1.014230  [_NO_FUNC_] [_NNP_] -99
-1.514571  [_NO_FUNC_] [_NNS_] -99
-0.591389  [_NO_FUNC_] [_NN_] -99
-0.970398  [_NO_FUNC_] [_PUNC_] -99
-1.555578  [_NO_FUNC_] [_VBP_] -99
-1.222700  [_PRP_] [_JJ_] -99
-0.560406  [_PRP_] [_NN_] -99
-2.143329  [_PUNC_] [_CC__CC_] -99
-1.709674  [_PUNC_] [_CC__NN_] -99
-0.969923  [_PUNC_] [_CD_] -99
-3.646780  [_PUNC_] [_FW_] -99
-1.225441  [_PUNC_] [_IN_] -99
-1.401973  [_PUNC_] [_IN__NN_] -99
-2.700363  [_PUNC_] [_IN__PRP_] -99
-1.581387  [_PUNC_] [_JJ_] -99
-1.133586  [_PUNC_] [_NNP_] -99
-0.908183  [_PUNC_] [_NN_] -99
-2.741755  [_PUNC_] [_NN__PRPS_] -99
-99.000000 [_PUNC_] [_NO_FUNC_] -99
-0.879624  [_PUNC_] [_PUNC_] -99
-2.486483  [_PUNC_] [_RB_] -99
-1.973364  [_PUNC_] [_RP_] -99
-1.241153  [_PUNC_] [_VBD_] -99
-2.896657  [_PUNC_] [_VBD__PRP_] -99
-3.177484  [_PUNC_] [_VBP__PRP_] -99
-2.045691  [_PUNC_] [_WP_] -99
-0.633024  [_RB_] [_IN_] -99
-1.880179  [_RB_] [_IN__NNS_] -99
-0.467065  [_RB_] [_NN_] -99
-3.743215  [_RB_] [_RP__NNS_] -99
-1.834421  [_RB_] [_VBP_] -99
-2.300306  [_RP_] [_NNS_] -99
-3.114210  [_RP_] [_NN__PRPS_] -99
-1.388261  [_RP_] [_VBN_] -99
-0.236472  [_RP_] [_VBP_] -99
-0.947161  [_RP__NNP_] [_CC_] -99
-0.849532  [_RP__NNP_] [_IN_] -99
-1.026754  [_RP__NNP_] [_IN__NN_] -99
-1.145258  [_RP__NNP_] [_NN_] -99
-99.000000 [_RP__NNP_] [_NO_FUNC_] -99
-2.562264  [_RP__NNP_] [_RB_] -99
-1.618745  [_RP__NNP_] [_VBD_] -99
-1.777766  [_RP__NNS_] [_NNP_] -99
-1.134079  [_RP__NNS_] [_NN_] -99
-1.379761  [_RP__NN_] [_IN__NNP_] -99
-0.600703  [_RP__NN_] [_IN__NN_] -99
-0.882887  [_RP__NN_] [_JJ_] -99
-0.778151  [_RP__NN_] [_NN_] -99
-2.072541  [_RP__NN_] [_NN__PRPS_] -99
-2.197308  [_RP__VBD_] [_CD_] -99
-2.581913  [_RP__VBP_] [_CD_] -99
-0.459968  [_RP__VBP_] [_NN_] -99
-2.140927  [_VBD_] [_CD_] -99
-2.220448  [_VBD_] [_IN__JJ_] -99
-2.030116  [_VBD_] [_IN__NNS_] -99
-0.966384  [_VBD_] [_IN__NN_] -99
-1.562097  [_VBD_] [_JJ_] -99
-0.858853  [_VBD_] [_NNP_] -99
-1.353821  [_VBD_] [_NNS_] -99
-0.383309  [_VBD_] [_NN_] -99
-1.688629  [_VBD_] [_NN__PRPS_] -99
-99.000000 [_VBD_] [_NO_FUNC_] -99
-5.650609  [_VBD_] [_RP__NNS_] -99
-3.928450  [_VBD_] [_VBD__PRP_] -99
-1.753982  [_VBD_] [_VBP_] -99
-4.236420  [_VBD__PRP_] [_CC__CC__PRP_] -99
-0.556737  [_VBD__PRP_] [_IN_] -99
-0.735361  [_VBD__PRP_] [_IN__NN_] -99
-1.240332  [_VBD__PRP_] [_JJ_] -99
-0.894490  [_VBD__PRP_] [_NNP_] -99
-0.425969  [_VBD__PRP_] [_NN_] -99
-2.341989  [_VBD__PRP_] [_RB_] -99
-2.301030  [_VBD__PRP_] [_RP_] -99
-0.333482  [_VBN_] [_IN_] -99
-1.450646  [_VBN_] [_NNS_] -99
-0.544068  [_VBN_] [_NN_] -99
-1.274138  [_VBP_] [_CC_] -99
-2.855822  [_VBP_] [_CC__VBD_] -99
-1.952732  [_VBP_] [_CD_] -99
-0.510122  [_VBP_] [_IN_] -99
-1.670186  [_VBP_] [_IN__NNP_] -99
-0.721220  [_VBP_] [_IN__NN_] -99
-1.381120  [_VBP_] [_IN__PRP_] -99
-1.322219  [_VBP_] [_NNS_] -99
-0.480158  [_VBP_] [_NN_] -99
-1.386000  [_VBP_] [_NN__PRPS_] -99
-99.000000 [_VBP_] [_NO_FUNC_] -99
-1.909697  [_VBP_] [_RB_] -99
-4.387533  [_VBP_] [_RP__NNP_] -99
-3.332943  [_VBP_] [_RP__NN_] -99
-2.935003  [_VBP_] [_VBD_] -99
-4.622197  [_VBP_] [_VBD__PRP_] -99
-2.355220  [_VBP_] [_VBP_] -99
-0.813624  [_VBP__PRP_] [_NNP_] -99
-2.184691  [_VBP__PRP_] [_RP_] -99
-4.455066  [_WP_] [_NNS_] -99
-2.362200  [_WP_] [_NN__PRPS_] -99
-0.370974  [_WP_] [_VBD_] -99
-0.981988  [_WP_] [_VBN_] -99
-0.438567  [_WP_] [_VBP_] -99

\3-grams:
-1.286832  <s> [_CC__VBD_] [_CC_]
-0.671639  <s> [_CC__VBD_] [_NNP_]
-0.371225  <s> [_CC__VBD_] [_NN_]
-99.000000 <s> [_CC__VBD_] [_NO_FUNC_]
-1.847730  <s> [_CC__VBD_] [_VBP_]
-1.418669  <s> [_CC__VBN_] [_CC_]
-1.258969  <s> [_CC__VBN_] [_NNP_]
-0.448633  <s> [_CC__VBN_] [_NN_]
-99.000000 <s> [_CC__VBN_] [_NO_FUNC_]
-3.031665  <s> [_CC__VBN_] [_VBP_]
-1.536769  <s> [_CC__VBP_] [_CC_]
-0.875587  <s> [_CC__VBP_] [_NNP_]
-1.119943  <s> [_CC__VBP_] [_NNS_]
-0.400224  <s> [_CC__VBP_] [_NN_]
-99.000000 <s> [_CC__VBP_] [_NO_FUNC_]
-2.307528  <s> [_CC__VBP_] [_VBP_]
-1.202135  <s> [_IN_] [_NN__PRPS_]
-2.160369  <s> [_JJ_] [_CC__NNP_]
-1.542249  <s> [_JJ_] [_IN__NNS_]
-3.576420  <s> [_NNP_] [_CC__NNP_]
-0.122744  <s> [_NNP_] [_CD_]
-3.806620  <s> [_NNS_] [_CC__NNP_]
-2.750669  <s> [_NNS_] [_IN__NNS_]
-2.659803  <s> [_NN_] [_CC__NNP_]
-1.750883  <s> [_NN_] [_CD_]
-2.421330  <s> [_NN_] [_IN__NNS_]
-4.024211  <s> [_PUNC_] [_FW_]
-4.451327  <s> [_RP_] [_NN__PRPS_]
-1.613933  <s> [_VBD_] [_JJ_]
-0.425969  <s> [_VBD_] [_NNP_]
-1.405657  <s> [_VBD_] [_NNS_]
-0.643019  <s> [_VBD_] [_NN_]
-0.362548  <s> [_VBN_] [_IN_]
-0.636571  <s> [_VBP_] [_IN_]
-2.362200  <s> [_WP_] [_NN__PRPS_]
-0.185541  [_CC_] [_CD_] [_PUNC_]
-1.811325  [_CC_] [_IN__NN_] [_NN__PRPS_]
-2.689113  [_CC_] [_IN__NN_] [_VBD__PRP_]
-1.861335  [_CC_] [_JJ_] [_PRP_]
-2.063709  [_CC_] [_NNP_] [_PRP_]
-2.899880  [_CC_] [_NNS_] [_PRP_]
-0.639966  [_CC_] [_NN_] [_JJ_]
-0.982531  [_CC_] [_NN_] [_NNP_]
-0.627418  [_CC_] [_NN_] [_NN_]
-2.252043  [_CC_] [_NN_] [_PRP_]
-2.090183  [_CC_] [_PUNC_] [_NN__PRPS_]
-4.344998  [_CC_] [_PUNC_] [_VBD__PRP_]
-2.924064  [_CC_] [_PUNC_] [_VBP__PRP_]
-0.671639  [_CC_] [_VBD_] [_NNP_]
-0.371225  [_CC_] [_VBD_] [_NN_]
-1.676545  [_CC_] [_VBD_] [_NN__PRPS_]
-4.024050  [_CC_] [_VBD_] [_VBD__PRP_]
-0.400224  [_CC_] [_VBP_] [_NN_]
-1.463395  [_CC__CC_] [_JJ_] [_VBD_]
-1.231200  [_CC__CC_] [_NNP_] [_VBD_]
-1.183847  [_CC__CC_] [_NNS_] [_VBD_]
-0.627418  [_CC__CC_] [_NN_] [_NN_]
-1.649984  [_CC__CC_] [_NN_] [_VBD_]
-0.371225  [_CC__CC_] [_VBD_] [_NN_]
-0.879288  [_CC__CC_] [_VBP_] [_IN__NN_]
-3.532404  [_CC__CC_] [_VBP_] [_RP__NN_]
-1.274140  [_CC__CC__PRP_] [_VBP_] [_IN__PRP_]
-0.925754  [_CC__JJ_] [_NN_] [_JJ_]
-1.816918  [_CC__JJ_] [_NN_] [_NN__PRPS_]
-2.013890  [_CC__JJ_] [_NN_] [_VBP_]
-0.833251  [_CC__JJ_] [_NN__PRPS_] [_JJ_]
-2.221401  [_CC__JJ_] [_NN__PRPS_] [_NN__PRPS_]
-1.928361  [_CC__JJ_] [_NN__PRPS_] [_VBP_]
-0.625249  [_CC__NNP_] [_CC__PRP_] [_VBP_]
-1.039762  [_CC__NNP_] [_JJ_] [_JJ_]
-0.981210  [_CC__NNP_] [_JJ_] [_NN_]
-0.853698  [_CC__NNP_] [_NN_] [_JJ_]
-0.420195  [_CC__NNP_] [_NN_] [_NN_]
-1.714585  [_CC__NNP_] [_NN_] [_NN__PRPS_]
-2.769718  [_CC__NNP_] [_NN_] [_VBP_]
-0.833251  [_CC__NNP_] [_NN__PRPS_] [_JJ_]
-2.221401  [_CC__NNP_] [_NN__PRPS_] [_NN__PRPS_]
-1.928361  [_CC__NNP_] [_NN__PRPS_] [_VBP_]
-0.617044  [_CC__NNP_] [_VBP_] [_IN__NN_]
-3.253798  [_CC__NNP_] [_VBP_] [_RP__NN_]
-0.936242  [_CC__NN_] [_JJ_] [_JJ_]
-1.141208  [_CC__NN_] [_JJ_] [_NN_]
-0.638626  [_CC__NN_] [_NN_] [_JJ_]
-0.705632  [_CC__NN_] [_NN_] [_NN_]
-0.599959  [_CC__NN_] [_VBP_] [_IN__NN_]
-3.872448  [_CC__NN_] [_VBP_] [_RP__NN_]
-1.939357  [_CC__PRP_] [_NN_] [_IN__NNS_]
-3.763809  [_CC__PRP_] [_NN_] [_RP__NNS_]
-1.599338  [_CC__PRP_] [_RB_] [_IN__NNS_]
-3.153072  [_CC__PRP_] [_RB_] [_RP__NNS_]
-1.824053  [_CC__PRP_] [_VBD_] [_IN__NNS_]
-6.356081  [_CC__PRP_] [_VBD_] [_RP__NNS_]
-0.403141  [_CC__PRP_] [_VBP_] [_IN_]
-1.274140  [_CC__PRP_] [_VBP_] [_IN__PRP_]
-0.516039  [_CC__PRP_] [_VBP_] [_NN_]
-2.541718  [_CC__VBD_] [_CC_] [_JJ_]
-1.139179  [_CC__VBD_] [_CC_] [_NNP_]
-1.280508  [_CC__VBD_] [_CC_] [_NNS_]
-0.588272  [_CC__VBD_] [_CC_] [_NN_]
-1.013926  [_CC__VBD_] [_NNP_] [_CC_]
-0.817187  [_CC__VBD_] [_NNP_] [_NN_]
-99.000000 [_CC__VBD_] [_NNP_] [_NO_FUNC_]
-0.832477  [_CC__VBD_] [_NN_] [_IN_]
-1.000263  [_CC__VBD_] [_NN_] [_IN__NN_]
-0.590669  [_CC__VBD_] [_NN_] [_JJ_]
-1.037458  [_CC__VBD_] [_NN_] [_NNP_]
-1.569627  [_CC__VBD_] [_NN_] [_NNS_]
-0.521879  [_CC__VBD_] [_NN_] [_NN_]
-1.816269  [_CC__VBD_] [_NN_] [_NN__PRPS_]
-2.292731  [_CC__VBD_] [_NN_] [_VBD_]
-2.324915  [_CC__VBD_] [_NN_] [_VBP_]
-0.833251  [_CC__VBD_] [_NN__PRPS_] [_JJ_]
-2.221401  [_CC__VBD_] [_NN__PRPS_] [_NN__PRPS_]
-1.928361  [_CC__VBD_] [_NN__PRPS_] [_VBP_]
-1.033275  [_CC__VBD_] [_NO_FUNC_] [_JJ_]
-1.014230  [_CC__VBD_] [_NO_FUNC_] [_NNP_]
-1.514571  [_CC__VBD_] [_NO_FUNC_] [_NNS_]
-0.591389  [_CC__VBD_] [_NO_FUNC_] [_NN_]
-0.523408  [_CC__VBD_] [_VBD_] [_IN__NN_]
-1.068186  [_CC__VBD_] [_VBP_] [_CC_]
-0.616526  [_CC__VBD_] [_VBP_] [_IN__NN_]
-0.745967  [_CC__VBD_] [_VBP_] [_NN_]
-99.000000 [_CC__VBD_] [_VBP_] [_NO_FUNC_]
-0.778151  [_CC__VBN_] [_CC_] [_VBP_]
-0.883453  [_CC__VBN_] [_NNP_] [_CC_]
-0.753328  [_CC__VBN_] [_NNP_] [_NN_]
-99.000000 [_CC__VBN_] [_NNP_] [_NO_FUNC_]
-2.140878  [_CC__VBN_] [_NN_] [_VBP_]
-1.555578  [_CC__VBN_] [_NO_FUNC_] [_VBP_]
-1.274138  [_CC__VBN_] [_VBP_] [_CC_]
-0.480158  [_CC__VBN_] [_VBP_] [_NN_]
-99.000000 [_CC__VBN_] [_VBP_] [_NO_FUNC_]
-1.772194  [_CC__VBP_] [_CC_] [_JJ_]
-1.405593  [_CC__VBP_] [_CC_] [_NNP_]
-2.099764  [_CC__VBP_] [_CC_] [_NNS_]
-0.868474  [_CC__VBP_] [_CC_] [_NN_]
-0.373064  [_CC__VBP_] [_CC_] [_VBP_]
-0.875888  [_CC__VBP_] [_NNP_] [_CC_]
-0.747858  [_CC__VBP_] [_NNP_] [_NN_]
-99.000000 [_CC__VBP_] [_NNP_] [_NO_FUNC_]
-0.630513  [_CC__VBP_] [_NNS_] [_IN_]
-0.697449  [_CC__VBP_] [_NN_] [_JJ_]
-1.340901  [_CC__VBP_] [_NN_] [_NNP_]
-1.340901  [_CC__VBP_] [_NN_] [_NNS_]
-0.575176  [_CC__VBP_] [_NN_] [_NN_]
-1.869566  [_CC__VBP_] [_NN_] [_NN__PRPS_]
-2.551755  [_CC__VBP_] [_NN_] [_VBP_]
-0.833251  [_CC__VBP_] [_NN__PRPS_] [_JJ_]
-2.221401  [_CC__VBP_] [_NN__PRPS_] [_NN__PRPS_]
-1.928361  [_CC__VBP_] [_NN__PRPS_] [_VBP_]
-1.033275  [_CC__VBP_] [_NO_FUNC_] [_JJ_]
-1.014230  [_CC__VBP_] [_NO_FUNC_] [_NNP_]
-1.514571  [_CC__VBP_] [_NO_FUNC_] [_NNS_]
-0.591389  [_CC__VBP_] [_NO_FUNC_] [_NN_]
-1.555578  [_CC__VBP_] [_NO_FUNC_] [_VBP_]
-0.867849  [_CC__VBP_] [_VBP_] [_CC_]
-1.385036  [_CC__VBP_] [_VBP_] [_NN_]
-99.000000 [_CC__VBP_] [_VBP_] [_NO_FUNC_]
-1.846646  [_CD_] [_CC_] [_NN_]
-0.957345  [_CD_] [_CC_] [_VBD_]
-0.827744  [_CD_] [_CC__CC_] [_NN_]
-0.467848  [_CD_] [_CC__CC_] [_VBD_]
-1.176091  [_CD_] [_JJ_] [_NN_]
-0.560667  [_CD_] [_NNS_] [_NN_]
-2.740363  [_CD_] [_NN_] [_NNP_]
-0.588074  [_CD_] [_NN_] [_NN_]
-0.619789  [_CD_] [_NN_] [_PUNC_]
-1.215410  [_CD_] [_PUNC_] </s>
-0.332946  [_CD_] [_PUNC_] [_CD_]
-1.553484  [_CD_] [_PUNC_] [_IN_]
-3.028406  [_CD_] [_PUNC_] [_IN__PRP_]
-1.969649  [_CD_] [_PUNC_] [_NNP_]
-0.536565  [_CD_] [_PUNC_] [_NN_]
-1.457765  [_CD_] [_PUNC_] [_PUNC_]
-2.450885  [_CD_] [_PUNC_] [_RP_]
-3.156735  [_CD_] [_PUNC_] [_WP_]
-0.616817  [_FW_] [_PUNC_] </s>
-0.579965  [_IN_] [_CC_] [_NN_]
-0.892200  [_IN_] [_CC__PRP_] [_NN_]
-2.315445  [_IN_] [_CC__PRP_] [_RB_]
-0.721606  [_IN_] [_CC__PRP_] [_VBD_]
-0.625249  [_IN_] [_CC__PRP_] [_VBP_]
-1.229102  [_IN_] [_CD_] [_CC_]
-3.376778  [_IN_] [_CD_] [_CC__CC_]
-0.366406  [_IN_] [_CD_] [_NN_]
-0.817660  [_IN_] [_CD_] [_PUNC_]
-1.165626  [_IN_] [_JJ_] [_JJ_]
-1.165626  [_IN_] [_JJ_] [_PUNC_]
-2.597942  [_IN_] [_NNP_] [_CC__JJ_]
-1.206301  [_IN_] [_NNP_] [_CC__NNP_]
-1.811190  [_IN_] [_NNP_] [_CC__VBD_]
-2.126650  [_IN_] [_NNP_] [_CC__VBP_]
-0.724781  [_IN_] [_NNP_] [_IN_]
-2.936353  [_IN_] [_NNP_] [_IN__PRP_]
-1.223474  [_IN_] [_NNP_] [_JJ_]
-0.836530  [_IN_] [_NNP_] [_NNP_]
-1.091802  [_IN_] [_NNP_] [_NN_]
-0.577697  [_IN_] [_NNP_] [_PUNC_]
-0.829159  [_IN_] [_NNS_] [_IN_]
-0.538022  [_IN_] [_NNS_] [_JJ_]
-0.696945  [_IN_] [_NNS_] [_NN_]
-0.990820  [_IN_] [_NNS_] [_PUNC_]
-4.548966  [_IN_] [_NNS_] [_RP__VBD_]
-3.571242  [_IN_] [_NNS_] [_RP__VBP_]
-1.795301  [_IN_] [_NNS_] [_VBD_]
-1.914446  [_IN_] [_NN_] [_IN__NNP_]
-1.135388  [_IN_] [_NN_] [_IN__NN_]
-0.712196  [_IN_] [_NN_] [_JJ_]
-1.043667  [_IN_] [_NN_] [_NNP_]
-0.516935  [_IN_] [_NN_] [_NN_]
-1.811325  [_IN_] [_NN_] [_NN__PRPS_]
-99.000000 [_IN_] [_NN_] [_NO_FUNC_]
-1.201858  [_IN_] [_NN_] [_PUNC_]
-4.163527  [_IN_] [_NN_] [_RP__NNP_]
-0.445290  [_IN_] [_NN__PRPS_] [_IN_]
-0.643083  [_IN_] [_NN__PRPS_] [_IN__NN_]
-2.082416  [_IN_] [_NN__PRPS_] [_IN__PRP_]
-0.989358  [_IN_] [_NN__PRPS_] [_NN_]
-1.846691  [_IN_] [_NN__PRPS_] [_VBD_]
-0.591389  [_IN_] [_NO_FUNC_] [_NN_]
-1.807335  [_IN_] [_VBD_] [_JJ_]
-0.176091  [_IN_] [_VBD_] [_NN_]
-1.481411  [_IN_] [_VBD_] [_NN__PRPS_]
-99.000000 [_IN_] [_VBD_] [_NO_FUNC_]
-0.301030  [_IN_] [_VBP_] [_NN_]
-2.036146  [_IN_] [_VBP_] [_RB_]
-3.061452  [_IN_] [_VBP_] [_VBD_]
-2.481669  [_IN_] [_VBP_] [_VBP_]
-1.246898  [_IN__CC_] [_NNS_] [_VBP_]
-0.712196  [_IN__JJ_] [_IN__NN_] [_JJ_]
-0.516935  [_IN__JJ_] [_IN__NN_] [_NN_]
-1.043195  [_IN__NNP_] [_CC_] [_VBD_]
-1.757314  [_IN__NNP_] [_IN_] [_JJ_]
-0.177222  [_IN__NNP_] [_IN_] [_NN_]
-0.712196  [_IN__NNP_] [_IN__NN_] [_JJ_]
-0.516935  [_IN__NNP_] [_IN__NN_] [_NN_]
-1.649689  [_IN__NNP_] [_IN__PRP_] [_JJ_]
-0.502153  [_IN__NNP_] [_IN__PRP_] [_NN_]
-0.657577  [_IN__NNP_] [_NNS_] [_NN_]
-1.397940  [_IN__NNP_] [_NNS_] [_PUNC_]
-3.739705  [_IN__NNP_] [_NNS_] [_RP__VBD_]
-2.761981  [_IN__NNP_] [_NNS_] [_RP__VBP_]
-2.058463  [_IN__NNP_] [_NNS_] [_VBD_]
-0.853698  [_IN__NNP_] [_NN_] [_JJ_]
-0.420195  [_IN__NNP_] [_NN_] [_NN_]
-0.591389  [_IN__NNP_] [_NO_FUNC_] [_NN_]
-0.408664  [_IN__NNP_] [_RB_] [_NN_]
-0.416423  [_IN__NNP_] [_VBD_] [_NN_]
-1.803457  [_IN__NNP__PRPS_] [_IN_] [_JJ_]
-1.110317  [_IN__NNP__PRPS_] [_IN_] [_NNS_]
-0.856379  [_IN__NNP__PRPS_] [_NN_] [_JJ_]
-1.356981  [_IN__NNP__PRPS_] [_NN_] [_NNS_]
-1.081759  [_IN__NNS_] [_NNP_] [_NN_]
-0.618720  [_IN__NNS_] [_NN_] [_NN_]
-0.820216  [_IN__NNS_] [_NN__PRPS_] [_PUNC_]
-0.579494  [_IN__NN_] [_CD_] [_PUNC_]
-1.068617  [_IN__NN_] [_IN_] [_NNS_]
-0.902003  [_IN__NN_] [_IN__NNP_] [_IN__NN_]
-1.135388  [_IN__NN_] [_IN__NN_] [_IN__NN_]
-0.712196  [_IN__NN_] [_IN__NN_] [_JJ_]
-2.411022  [_IN__NN_] [_JJ_] [_CD_]
-0.467815  [_IN__NN_] [_JJ_] [_IN_]
-1.308127  [_IN__NN_] [_JJ_] [_IN__NNP_]
-0.653504  [_IN__NN_] [_JJ_] [_IN__NN_]
-0.936242  [_IN__NN_] [_JJ_] [_JJ_]
-2.300324  [_IN__NN_] [_JJ_] [_NNS_]
-3.317357  [_IN__NN_] [_JJ_] [_NNS__PRPS_]
-1.141208  [_IN__NN_] [_JJ_] [_NN_]
-2.304860  [_IN__NN_] [_JJ_] [_NN__PRPS_]
-0.728615  [_IN__NN_] [_JJ_] [_PUNC_]
-1.605718  [_IN__NN_] [_JJ_] [_VBD_]
-1.565924  [_IN__NN_] [_JJ_] [_WP_]
-3.199924  [_IN__NN_] [_NNP_] [_NNS_]
-2.206302  [_IN__NN_] [_NN_] [_CD_]
-0.780496  [_IN__NN_] [_NN_] [_IN_]
-1.727339  [_IN__NN_] [_NN_] [_IN__NNP_]
-0.948281  [_IN__NN_] [_NN_] [_IN__NN_]
-0.638626  [_IN__NN_] [_NN_] [_JJ_]
-1.239285  [_IN__NN_] [_NN_] [_NNP_]
-1.646771  [_IN__NN_] [_NN_] [_NNS_]
-0.705632  [_IN__NN_] [_NN_] [_NN_]
-4.061786  [_IN__NN_] [_NN_] [_RP__NNP_]
-2.028056  [_IN__NN_] [_NN_] [_VBD_]
-3.082238  [_IN__NN_] [_NN__PRPS_] </s>
-3.077967  [_IN__NN_] [_NN__PRPS_] [_CC__CC__PRP_]
-4.236420  [_IN__NN_] [_VBD__PRP_] [_CC__CC__PRP_]
-1.988700  [_IN__NN__PRPS_] [_CC_] [_CD_]
-1.247155  [_IN__NN__PRPS_] [_IN_] [_CD_]
-1.939001  [_IN__NN__PRP_] [_CC_] [_CD_]
-1.390430  [_IN__NN__PRP_] [_IN_] [_CD_]
-0.954242  [_IN__PRP_] [_CC_] [_NN_]
-0.625249  [_IN__PRP_] [_CC__PRP_] [_VBP_]
-0.763289  [_IN__PRP_] [_CD_] [_CC_]
-2.910965  [_IN__PRP_] [_CD_] [_CC__CC_]
-1.433896  [_IN__PRP_] [_IN_] [_JJ_]
-1.235528  [_IN__PRP_] [_IN_] [_NNS_]
-1.133006  [_IN__PRP_] [_JJ_] [_PUNC_]
-2.655523  [_IN__PRP_] [_NNP_] [_CC__JJ_]
-1.263882  [_IN__PRP_] [_NNP_] [_CC__NNP_]
-1.868771  [_IN__PRP_] [_NNP_] [_CC__VBD_]
-2.184231  [_IN__PRP_] [_NNP_] [_CC__VBP_]
-1.337459  [_IN__PRP_] [_NNP_] [_JJ_]
-0.617300  [_IN__PRP_] [_NNP_] [_NNP_]
-1.240549  [_IN__PRP_] [_NNP_] [_NN_]
-0.667656  [_IN__PRP_] [_NNS_] [_IN_]
-0.750630  [_IN__PRP_] [_NNS_] [_NN_]
-2.401861  [_IN__PRP_] [_NNS_] [_VBD_]
-0.554915  [_IN__PRP_] [_NN_] [_JJ_]
-1.167491  [_IN__PRP_] [_NN_] [_NNP_]
-1.494850  [_IN__PRP_] [_NN_] [_NNS_]
-0.614990  [_IN__PRP_] [_NN_] [_NN_]
-1.909380  [_IN__PRP_] [_NN_] [_NN__PRPS_]
-99.000000 [_IN__PRP_] [_NN_] [_NO_FUNC_]
-1.184865  [_IN__PRP_] [_NN_] [_PUNC_]
-0.591389  [_IN__PRP_] [_NO_FUNC_] [_NN_]
-1.615424  [_IN__PRP_] [_VBD_] [_JJ_]
-0.384975  [_IN__PRP_] [_VBD_] [_NN_]
-1.690295  [_IN__PRP_] [_VBD_] [_NN__PRPS_]
-99.000000 [_IN__PRP_] [_VBD_] [_NO_FUNC_]
-2.360065  [_JJ_] [_CC__CC_] [_JJ_]
-1.506193  [_JJ_] [_CC__CC_] [_NNP_]
-1.506193  [_JJ_] [_CC__CC_] [_NNS_]
-0.827744  [_JJ_] [_CC__CC_] [_NN_]
-1.981327  [_JJ_] [_CC__NNP_] [_CC__PRP_]
-1.373513  [_JJ_] [_CC__NNP_] [_VBP_]
-0.391691  [_JJ_] [_CD_] [_PUNC_]
-1.519740  [_JJ_] [_IN_] [_CD_]
-0.840313  [_JJ_] [_IN_] [_NNP_]
-1.081990  [_JJ_] [_IN_] [_NNS_]
-1.282664  [_JJ_] [_IN_] [_NN__PRPS_]
-0.724781  [_JJ_] [_IN__NNP_] [_IN_]
-2.936353  [_JJ_] [_IN__NNP_] [_IN__PRP_]
-2.427594  [_JJ_] [_IN__NNP_] [_NNS_]
-1.091802  [_JJ_] [_IN__NNP_] [_NN_]
-0.884250  [_JJ_] [_IN__NNP__PRPS_] [_IN_]
-1.427636  [_JJ_] [_IN__NNP__PRPS_] [_NN_]
-2.226095  [_JJ_] [_IN__NNS_] [_NN__PRPS_]
-1.669288  [_JJ_] [_IN__NN_] [_CD_]
-0.712196  [_JJ_] [_IN__NN_] [_JJ_]
-1.811325  [_JJ_] [_IN__NN_] [_NN__PRPS_]
-2.689113  [_JJ_] [_IN__NN_] [_VBD__PRP_]
-0.601176  [_JJ_] [_IN__PRP_] [_IN_]
-1.228683  [_JJ_] [_IN__PRP_] [_NNP_]
-0.502153  [_JJ_] [_IN__PRP_] [_NN_]
-1.144335  [_JJ_] [_JJ_] [_JJ_]
-1.179097  [_JJ_] [_JJ_] [_NNP_]
-2.119975  [_JJ_] [_JJ_] [_NNS_]
-3.137008  [_JJ_] [_JJ_] [_NNS__PRPS_]
-1.009080  [_JJ_] [_JJ_] [_NN_]
-2.172732  [_JJ_] [_JJ_] [_NN__PRPS_]
-0.784791  [_JJ_] [_JJ_] [_PUNC_]
-2.247478  [_JJ_] [_JJ_] [_RP__VBP_]
-1.538119  [_JJ_] [_JJ_] [_WP_]
-0.048185  [_JJ_] [_NNP_] [_NNP_]
-1.441619  [_JJ_] [_NNP_] [_PUNC_]
-3.007616  [_JJ_] [_NNP_] [_VBP_]
-1.583831  [_JJ_] [_NNS_] [_NNP_]
-0.831397  [_JJ_] [_NNS_] [_NN_]
-1.829446  [_JJ_] [_NNS_] [_VBD_]
-2.231934  [_JJ_] [_NNS_] [_VBN_]
-1.591065  [_JJ_] [_NNS_] [_VBP_]
-1.726320  [_JJ_] [_NNS__PRPS_] [_VBD_]
-2.704469  [_JJ_] [_NNS__PRPS_] [_VBN_]
-1.726320  [_JJ_] [_NNS__PRPS_] [_VBP_]
-1.587921  [_JJ_] [_NN_] [_CD_]
-0.925754  [_JJ_] [_NN_] [_JJ_]
-1.200977  [_JJ_] [_NN_] [_NNP_]
-1.661708  [_JJ_] [_NN_] [_NNS_]
-2.952871  [_JJ_] [_NN_] [_NNS__PRPS_]
-0.522528  [_JJ_] [_NN_] [_NN_]
-1.816918  [_JJ_] [_NN_] [_NN__PRPS_]
-1.168792  [_JJ_] [_NN_] [_PUNC_]
-1.862622  [_JJ_] [_NN_] [_WP_]
-0.445290  [_JJ_] [_NN__PRPS_] [_IN_]
-0.643083  [_JJ_] [_NN__PRPS_] [_IN__NN_]
-0.989358  [_JJ_] [_NN__PRPS_] [_NN_]
-1.846691  [_JJ_] [_NN__PRPS_] [_VBD_]
-3.130687  [_JJ_] [_NN__PRPS_] [_VBN_]
-1.928361  [_JJ_] [_NN__PRPS_] [_VBP_]
-0.801632  [_JJ_] [_PRP_] [_JJ_]
-0.349335  [_JJ_] [_PRP_] [_NN_]
-0.516320  [_JJ_] [_PUNC_] </s>
-1.056306  [_JJ_] [_PUNC_] [_IN_]
-1.546909  [_JJ_] [_PUNC_] [_JJ_]
-1.344259  [_JJ_] [_PUNC_] [_NN_]
-0.771702  [_JJ_] [_PUNC_] [_PUNC_]
-2.461899  [_JJ_] [_PUNC_] [_RB_]
-0.459968  [_JJ_] [_RP__VBP_] [_NN_]
-1.993278  [_JJ_] [_VBD_] [_IN__JJ_]
-1.354108  [_JJ_] [_VBD_] [_NNS_]
-0.480982  [_JJ_] [_VBD_] [_NN_]
-1.786302  [_JJ_] [_VBD_] [_NN__PRPS_]
-3.644146  [_JJ_] [_VBD_] [_VBD__PRP_]
-0.556737  [_JJ_] [_VBD__PRP_] [_IN_]
-0.735361  [_JJ_] [_VBD__PRP_] [_IN__NN_]
-0.425969  [_JJ_] [_VBD__PRP_] [_NN_]
-2.146469  [_JJ_] [_VBP_] [_CD_]
-0.388180  [_JJ_] [_WP_] [_VBD_]
-0.865301  [_JJ_] [_WP_] [_VBN_]
-0.417536  [_JJ_] [_WP_] [_VBP_]
-0.588400  [_NNP_] [_CC_] [_NN_]
-1.364564  [_NNP_] [_CC_] [_PUNC_]
-1.134336  [_NNP_] [_CC__JJ_] [_NN_]
-2.297988  [_NNP_] [_CC__JJ_] [_NN__PRPS_]
-1.981327  [_NNP_] [_CC__NNP_] [_CC__PRP_]
-1.206376  [_NNP_] [_CC__NNP_] [_JJ_]
-1.741489  [_NNP_] [_CC__NNP_] [_NN_]
-2.873651  [_NNP_] [_CC__NNP_] [_NN__PRPS_]
-1.373513  [_NNP_] [_CC__NNP_] [_VBP_]
-0.639966  [_NNP_] [_CC__NN_] [_JJ_]
-0.627418  [_NNP_] [_CC__NN_] [_NN_]
-0.371225  [_NNP_] [_CC__VBD_] [_NN_]
-1.676545  [_NNP_] [_CC__VBD_] [_NN__PRPS_]
-0.400224  [_NNP_] [_CC__VBP_] [_NN_]
-1.306066  [_NNP_] [_CC__VBP_] [_NN__PRPS_]
-0.044473  [_NNP_] [_CD_] [_PUNC_]
-1.304326  [_NNP_] [_IN_] [_CD_]
-0.810968  [_NNP_] [_IN_] [_NNP_]
-0.177222  [_NNP_] [_IN_] [_NN_]
-4.036769  [_NNP_] [_IN_] [_VBD_]
-3.559647  [_NNP_] [_IN_] [_VBP_]
-1.318608  [_NNP_] [_IN__CC_] [_NNS_]
-0.724781  [_NNP_] [_IN__NNP_] [_IN_]
-0.902003  [_NNP_] [_IN__NNP_] [_IN__NN_]
-1.091802  [_NNP_] [_IN__NNP_] [_NN_]
-99.000000 [_NNP_] [_IN__NNP_] [_NO_FUNC_]
-3.488119  [_NNP_] [_IN__NNP_] [_RB_]
-1.779777  [_NNP_] [_IN__NNP_] [_VBD_]
-1.514990  [_NNP_] [_IN__PRP_] [_CD_]
-1.228683  [_NNP_] [_IN__PRP_] [_NNP_]
-0.502153  [_NNP_] [_IN__PRP_] [_NN_]
-0.711163  [_NNP_] [_JJ_] [_IN__NN_]
-0.611560  [_NNP_] [_JJ_] [_PUNC_]
-0.821172  [_NNP_] [_NNP_] [_IN_]
-2.320613  [_NNP_] [_NNP_] [_IN__CC_]
-3.032744  [_NNP_] [_NNP_] [_IN__PRP_]
-0.790570  [_NNP_] [_NNP_] [_NNP_]
-0.918266  [_NNP_] [_NNP_] [_NN_]
-1.487484  [_NNP_] [_NNP_] [_VBD_]
-1.791947  [_NNP_] [_NNP_] [_VBP_]
-1.397940  [_NNP_] [_NNS_] [_PUNC_]
-1.357692  [_NNP_] [_NN_] [_CD_]
-2.622548  [_NNP_] [_NN_] [_IN__CC_]
-0.947155  [_NNP_] [_NN_] [_IN__NN_]
-0.853698  [_NNP_] [_NN_] [_JJ_]
-1.100371  [_NNP_] [_NN_] [_NNP_]
-0.420195  [_NNP_] [_NN_] [_NN_]
-1.417006  [_NNP_] [_NN_] [_PUNC_]
-2.769718  [_NNP_] [_NN_] [_VBP_]
-0.591389  [_NNP_] [_NO_FUNC_] [_NN_]
-0.388180  [_NNP_] [_PRP_] [_JJ_]
-1.448705  [_NNP_] [_PRP_] [_NN_]
-0.696762  [_NNP_] [_PUNC_] </s>
-0.905727  [_NNP_] [_PUNC_] [_CD_]
-0.849532  [_NNP_] [_RP__NNP_] [_IN_]
-1.026754  [_NNP_] [_RP__NNP_] [_IN__NN_]
-1.145258  [_NNP_] [_RP__NNP_] [_NN_]
-99.000000 [_NNP_] [_RP__NNP_] [_NO_FUNC_]
-2.562264  [_NNP_] [_RP__NNP_] [_RB_]
-1.618745  [_NNP_] [_RP__NNP_] [_VBD_]
-2.000076  [_NNP_] [_VBD_] [_IN__JJ_]
-0.416423  [_NNP_] [_VBD_] [_NN_]
-1.468010  [_NNP_] [_VBN_] [_NN_]
-0.405946  [_NNP_] [_VBP_] [_IN_]
-1.276944  [_NNP_] [_VBP_] [_IN__PRP_]
-0.489186  [_NNP_] [_VBP_] [_NN_]
-1.981327  [_NNS_] [_CC__NNP_] [_CC__PRP_]
-1.373513  [_NNS_] [_CC__NNP_] [_VBP_]
-2.442096  [_NNS_] [_IN_] [_CC__PRP_]
-0.184524  [_NNS_] [_IN_] [_NN_]
-3.867140  [_NNS_] [_IN_] [_VBP_]
-2.226095  [_NNS_] [_IN__NNS_] [_NN__PRPS_]
-2.183998  [_NNS_] [_IN__PRP_] [_CC__PRP_]
-0.461660  [_NNS_] [_JJ_] [_IN_]
-1.301972  [_NNS_] [_JJ_] [_IN__NNP_]
-1.255915  [_NNS_] [_JJ_] [_NN_]
-2.313996  [_NNS_] [_JJ_] [_RP__VBP_]
-1.440781  [_NNS_] [_JJ_] [_VBD_]
-0.625827  [_NNS_] [_NNP_] [_PUNC_]
-2.611501  [_NNS_] [_NN_] [_CD_]
-0.618720  [_NNS_] [_NN_] [_NN_]
-1.039064  [_NNS_] [_NN_] [_PUNC_]
-2.283906  [_NNS_] [_NN__PRPS_] [_CC__PRP_]
-1.878704  [_NNS_] [_PRP_] [_JJ_]
-0.602060  [_NNS_] [_PRP_] [_NN_]
-0.412892  [_NNS_] [_PUNC_] </s>
-2.053853  [_NNS_] [_PUNC_] [_CC__CC_]
-1.620198  [_NNS_] [_PUNC_] [_CC__NN_]
-1.280654  [_NNS_] [_PUNC_] [_NN_]
-99.000000 [_NNS_] [_PUNC_] [_NO_FUNC_]
-1.262926  [_NNS_] [_PUNC_] [_VBD_]
-2.183744  [_NNS_] [_PUNC_] [_WP_]
-2.197308  [_NNS_] [_RP__VBD_] [_CD_]
-2.581913  [_NNS_] [_RP__VBP_] [_CD_]
-2.853982  [_NNS_] [_VBD_] [_CD_]
-1.853274  [_NNS_] [_VBD_] [_IN__JJ_]
-1.505150  [_NNS_] [_VBD_] [_NNS_]
-0.584331  [_NNS_] [_VBD_] [_NN_]
-1.795992  [_NNS_] [_VBN_] [_NNS_]
-0.329675  [_NNS_] [_VBP_] [_IN_]
-1.496007  [_NNS_] [_VBP_] [_NNS_]
-1.481029  [_NNS_] [_VBP_] [_NN__PRPS_]
-5.281498  [_NNS_] [_VBP_] [_VBD__PRP_]
-1.471022  [_NNS__PRPS_] [_VBD_] [_NNS_]
-1.627233  [_NNS__PRPS_] [_VBN_] [_NNS_]
-1.714278  [_NNS__PRPS_] [_VBP_] [_NNS_]
-1.424355  [_NNS__PRPS_] [_VBP_] [_NN__PRPS_]
-5.014257  [_NNS__PRPS_] [_VBP_] [_VBD__PRP_]
-1.563135  [_NN_] [_CC_] [_IN__NN_]
-0.362422  [_NN_] [_CC_] [_NN_]
-1.035396  [_NN_] [_CC_] [_VBD_]
-2.360065  [_NN_] [_CC__CC_] [_JJ_]
-1.506193  [_NN_] [_CC__CC_] [_NNP_]
-1.506193  [_NN_] [_CC__CC_] [_NNS_]
-0.827744  [_NN_] [_CC__CC_] [_NN_]
-1.981327  [_NN_] [_CC__NNP_] [_CC__PRP_]
-1.373513  [_NN_] [_CC__NNP_] [_VBP_]
-1.221849  [_NN_] [_CD_] [_CC_]
-3.369525  [_NN_] [_CD_] [_CC__CC_]
-0.317253  [_NN_] [_CD_] [_NN_]
-0.579494  [_NN_] [_CD_] [_PUNC_]
-0.946843  [_NN_] [_IN_] [_NNP_]
-1.068617  [_NN_] [_IN_] [_NNS_]
-0.167785  [_NN_] [_IN_] [_NN_]
-1.264760  [_NN_] [_IN_] [_NN__PRPS_]
-3.901332  [_NN_] [_IN_] [_VBD_]
-1.318608  [_NN_] [_IN__CC_] [_NNS_]
-0.767995  [_NN_] [_IN__NNP_] [_CC_]
-2.427594  [_NN_] [_IN__NNP_] [_NNS_]
-1.443118  [_NN_] [_IN__NNS_] [_NNP_]
-0.696945  [_NN_] [_IN__NNS_] [_NN_]
-2.226095  [_NN_] [_IN__NNS_] [_NN__PRPS_]
-0.967602  [_NN_] [_IN__NN_] [_IN_]
-0.712196  [_NN_] [_IN__NN_] [_JJ_]
-1.043667  [_NN_] [_IN__NN_] [_NNP_]
-0.516935  [_NN_] [_IN__NN_] [_NN_]
-1.005152  [_NN_] [_IN__NN__PRPS_] [_CC_]
-0.445290  [_NN_] [_IN__NN__PRPS_] [_IN_]
-0.970037  [_NN_] [_IN__NN__PRP_] [_CC_]
-1.146128  [_NN_] [_IN__NN__PRP_] [_IN_]
-1.228683  [_NN_] [_IN__PRP_] [_NNP_]
-0.502153  [_NN_] [_IN__PRP_] [_NN_]
-2.213960  [_NN_] [_IN__PRP_] [_VBD_]
-2.563548  [_NN_] [_JJ_] [_CC__CC_]
-0.467815  [_NN_] [_JJ_] [_IN_]
-1.308127  [_NN_] [_JJ_] [_IN__NNP_]
-4.017980  [_NN_] [_JJ_] [_IN__NNP__PRPS_]
-0.653504  [_NN_] [_JJ_] [_IN__NN_]
-2.110568  [_NN_] [_JJ_] [_IN__PRP_]
-0.936242  [_NN_] [_JJ_] [_JJ_]
-1.112803  [_NN_] [_JJ_] [_NNP_]
-2.300324  [_NN_] [_JJ_] [_NNS_]
-3.317357  [_NN_] [_JJ_] [_NNS__PRPS_]
-1.141208  [_NN_] [_JJ_] [_NN_]
-2.304860  [_NN_] [_JJ_] [_NN__PRPS_]
-2.623630  [_NN_] [_JJ_] [_PRP_]
-0.728615  [_NN_] [_JJ_] [_PUNC_]
-1.605718  [_NN_] [_JJ_] [_VBD_]
-2.591850  [_NN_] [_JJ_] [_VBD__PRP_]
-1.565924  [_NN_] [_JJ_] [_WP_]
-2.932007  [_NN_] [_NNP_] [_CC__JJ_]
-1.540366  [_NN_] [_NNP_] [_CC__NNP_]
-1.690460  [_NN_] [_NNP_] [_CC__NN_]
-2.145255  [_NN_] [_NNP_] [_CC__VBD_]
-2.460715  [_NN_] [_NNP_] [_CC__VBP_]
-0.814573  [_NN_] [_NNP_] [_IN_]
-1.625541  [_NN_] [_NNP_] [_IN__NNP_]
-0.967235  [_NN_] [_NNP_] [_JJ_]
-0.409229  [_NN_] [_NNP_] [_NNP_]
-1.399297  [_NN_] [_NNP_] [_NN_]
-2.857935  [_NN_] [_NNP_] [_PRP_]
-0.799130  [_NN_] [_NNP_] [_PUNC_]
-4.943787  [_NN_] [_NNP_] [_RP__NNP_]
-0.664629  [_NN_] [_NNS_] [_IN_]
-0.515115  [_NN_] [_NNS_] [_JJ_]
-1.561810  [_NN_] [_NNS_] [_NNP_]
-0.862840  [_NN_] [_NNS_] [_NN_]
-2.652891  [_NN_] [_NNS_] [_PRP_]
-1.050831  [_NN_] [_NNS_] [_PUNC_]
-4.503466  [_NN_] [_NNS_] [_RP__VBD_]
-3.525742  [_NN_] [_NNS_] [_RP__VBP_]
-1.953921  [_NN_] [_NNS_] [_VBD_]
-1.925892  [_NN_] [_NNS_] [_VBN_]
-1.953921  [_NN_] [_NNS_] [_VBP_]
-1.726320  [_NN_] [_NNS__PRPS_] [_VBD_]
-2.704469  [_NN_] [_NNS__PRPS_] [_VBN_]
-1.726320  [_NN_] [_NNS__PRPS_] [_VBP_]
-1.181731  [_NN_] [_NN_] [_CC_]
-2.788739  [_NN_] [_NN_] [_CC__CC_]
-0.780496  [_NN_] [_NN_] [_IN_]
-1.727339  [_NN_] [_NN_] [_IN__NNP_]
-0.948281  [_NN_] [_NN_] [_IN__NN_]
-2.220406  [_NN_] [_NN_] [_IN__PRP_]
-0.638626  [_NN_] [_NN_] [_JJ_]
-1.239285  [_NN_] [_NN_] [_NNP_]
-1.646771  [_NN_] [_NN_] [_NNS_]
-2.937934  [_NN_] [_NN_] [_NNS__PRPS_]
-0.705632  [_NN_] [_NN_] [_NN_]
-2.000022  [_NN_] [_NN_] [_NN__PRPS_]
-99.000000 [_NN_] [_NN_] [_NO_FUNC_]
-2.990984  [_NN_] [_NN_] [_PRP_]
-0.818594  [_NN_] [_NN_] [_PUNC_]
-4.061786  [_NN_] [_NN_] [_RP__NNP_]
-2.028056  [_NN_] [_NN_] [_VBD_]
-2.820448  [_NN_] [_NN_] [_VBD__PRP_]
-1.820189  [_NN_] [_NN_] [_WP_]
-0.445290  [_NN_] [_NN__PRPS_] [_IN_]
-1.297734  [_NN_] [_NN__PRPS_] [_IN__NNP_]
-0.643083  [_NN_] [_NN__PRPS_] [_IN__NN_]
-0.989358  [_NN_] [_NN__PRPS_] [_NN_]
-2.221401  [_NN_] [_NN__PRPS_] [_NN__PRPS_]
-1.846691  [_NN_] [_NN__PRPS_] [_VBD_]
-3.136726  [_NN_] [_NN__PRPS_] [_VBD__PRP_]
-3.130687  [_NN_] [_NN__PRPS_] [_VBN_]
-1.928361  [_NN_] [_NN__PRPS_] [_VBP_]
-0.591389  [_NN_] [_NO_FUNC_] [_NN_]
-0.970398  [_NN_] [_NO_FUNC_] [_PUNC_]
-0.669007  [_NN_] [_PRP_] [_JJ_]
-0.405765  [_NN_] [_PRP_] [_NN_]
-0.641826  [_NN_] [_PUNC_] </s>
-1.814408  [_NN_] [_PUNC_] [_CD_]
-1.140086  [_NN_] [_PUNC_] [_IN_]
-1.316618  [_NN_] [_PUNC_] [_IN__NN_]
-2.615008  [_NN_] [_PUNC_] [_IN__PRP_]
-1.467247  [_NN_] [_PUNC_] [_JJ_]
-1.033768  [_NN_] [_PUNC_] [_NN_]
-2.867340  [_NN_] [_PUNC_] [_NN__PRPS_]
-0.552531  [_NN_] [_PUNC_] [_PUNC_]
-3.288858  [_NN_] [_PUNC_] [_VBD__PRP_]
-3.230349  [_NN_] [_PUNC_] [_VBP__PRP_]
-0.947161  [_NN_] [_RP__NNP_] [_CC_]
-1.777766  [_NN_] [_RP__NNS_] [_NNP_]
-1.134079  [_NN_] [_RP__NNS_] [_NN_]
-1.968774  [_NN_] [_VBD_] [_IN__JJ_]
-0.714710  [_NN_] [_VBD_] [_IN__NN_]
-1.295067  [_NN_] [_VBD_] [_JJ_]
-1.382217  [_NN_] [_VBD_] [_NNS_]
-0.683247  [_NN_] [_VBD_] [_NN_]
-1.988567  [_NN_] [_VBD_] [_NN__PRPS_]
-99.000000 [_NN_] [_VBD_] [_NO_FUNC_]
-0.735361  [_NN_] [_VBD__PRP_] [_IN__NN_]
-2.751701  [_NN_] [_VBP_] [_CC__VBD_]
-1.548924  [_NN_] [_VBP_] [_IN__NNP_]
-0.599959  [_NN_] [_VBP_] [_IN__NN_]
-0.545907  [_NN_] [_VBP_] [_NN_]
-4.927038  [_NN_] [_VBP_] [_RP__NNP_]
-3.872448  [_NN_] [_VBP_] [_RP__NN_]
-0.350216  [_NN_] [_WP_] [_VBD_]
-0.992964  [_NN_] [_WP_] [_VBN_]
-0.435800  [_NN_] [_WP_] [_VBP_]
-0.625249  [_NN__PRPS_] [_CC__CC__PRP_] [_VBP_]
-0.625249  [_NN__PRPS_] [_CC__PRP_] [_VBP_]
-1.637126  [_NN__PRPS_] [_IN_] [_CC_]
-1.247155  [_NN__PRPS_] [_IN_] [_CD_]
-1.803457  [_NN__PRPS_] [_IN_] [_JJ_]
-1.110317  [_NN__PRPS_] [_IN_] [_NNS_]
-0.197793  [_NN__PRPS_] [_IN_] [_NN_]
-99.000000 [_NN__PRPS_] [_IN_] [_NO_FUNC_]
-0.724781  [_NN__PRPS_] [_IN__NNP_] [_IN_]
-2.936353  [_NN__PRPS_] [_IN__NNP_] [_IN__PRP_]
-1.091802  [_NN__PRPS_] [_IN__NNP_] [_NN_]
-0.516935  [_NN__PRPS_] [_IN__NN_] [_NN_]
-1.083627  [_NN__PRPS_] [_IN__PRP_] [_CC_]
-0.502153  [_NN__PRPS_] [_IN__PRP_] [_NN_]
-99.000000 [_NN__PRPS_] [_IN__PRP_] [_NO_FUNC_]
-0.427376  [_NN__PRPS_] [_JJ_] [_IN_]
-1.267689  [_NN__PRPS_] [_JJ_] [_IN__NNP_]
-1.152499  [_NN__PRPS_] [_JJ_] [_NN_]
-2.313867  [_NN__PRPS_] [_JJ_] [_VBP_]
-3.051873  [_NN__PRPS_] [_NNP_] [_VBN_]
-2.073157  [_NN__PRPS_] [_NNP_] [_VBP_]
-1.436163  [_NN__PRPS_] [_NN_] [_CC_]
-1.322219  [_NN__PRPS_] [_NN_] [_CD_]
-0.856379  [_NN__PRPS_] [_NN_] [_JJ_]
-1.356981  [_NN__PRPS_] [_NN_] [_NNS_]
-0.538535  [_NN__PRPS_] [_NN_] [_NN_]
-99.000000 [_NN__PRPS_] [_NN_] [_NO_FUNC_]
-1.297734  [_NN__PRPS_] [_NN__PRPS_] [_IN__NNP_]
-0.643083  [_NN__PRPS_] [_NN__PRPS_] [_IN__NN_]
-2.720124  [_NN__PRPS_] [_PUNC_] [_JJ_]
-0.916020  [_NN__PRPS_] [_RB_] [_IN_]
-0.397940  [_NN__PRPS_] [_RB_] [_NN_]
-1.845577  [_NN__PRPS_] [_RB_] [_VBP_]
-2.193976  [_NN__PRPS_] [_RP_] [_VBN_]
-0.185637  [_NN__PRPS_] [_RP_] [_VBP_]
-1.113943  [_NN__PRPS_] [_VBD_] [_NNP_]
-1.471022  [_NN__PRPS_] [_VBD_] [_NNS_]
-1.871183  [_NN__PRPS_] [_VBD_] [_VBP_]
-0.735361  [_NN__PRPS_] [_VBD__PRP_] [_IN__NN_]
-1.627233  [_NN__PRPS_] [_VBN_] [_NNS_]
-2.344791  [_NN__PRPS_] [_VBP_] [_CD_]
-1.474458  [_NN__PRPS_] [_VBP_] [_IN__NNP_]
-1.714278  [_NN__PRPS_] [_VBP_] [_NNS_]
-1.424355  [_NN__PRPS_] [_VBP_] [_NN__PRPS_]
-5.014257  [_NN__PRPS_] [_VBP_] [_VBD__PRP_]
-2.576220  [_NO_FUNC_] [_JJ_] [_PRP_]
-2.832625  [_NO_FUNC_] [_NNP_] [_PRP_]
-2.771679  [_NO_FUNC_] [_NNS_] [_PRP_]
-1.793050  [_NO_FUNC_] [_NN_] [_IN__NNP_]
-0.695487  [_NO_FUNC_] [_NN_] [_JJ_]
-1.137875  [_NO_FUNC_] [_NN_] [_NNP_]
-0.565494  [_NO_FUNC_] [_NN_] [_NN_]
-2.849683  [_NO_FUNC_] [_NN_] [_PRP_]
-4.076371  [_NO_FUNC_] [_NN_] [_RP__NNP_]
-0.616817  [_NO_FUNC_] [_PUNC_] </s>
-0.480158  [_NO_FUNC_] [_VBP_] [_NN_]
-0.765030  [_PRP_] [_JJ_] [_NN_]
-0.614990  [_PRP_] [_NN_] [_NN_]
-1.063834  [_PUNC_] [_CC__CC_] [_VBP_]
-1.615221  [_PUNC_] [_CC__NN_] [_VBP_]
-2.248954  [_PUNC_] [_CD_] [_JJ_]
-2.294711  [_PUNC_] [_CD_] [_NNS_]
-0.835654  [_PUNC_] [_CD_] [_NN_]
-0.161882  [_PUNC_] [_CD_] [_PUNC_]
-0.124939  [_PUNC_] [_FW_] [_PUNC_]
-1.474922  [_PUNC_] [_IN_] [_JJ_]
-1.154587  [_PUNC_] [_IN_] [_NNP_]
-1.142178  [_PUNC_] [_IN_] [_NNS_]
-0.176532  [_PUNC_] [_IN_] [_NN_]
-3.595486  [_PUNC_] [_IN_] [_VBD_]
-0.712196  [_PUNC_] [_IN__NN_] [_JJ_]
-0.516935  [_PUNC_] [_IN__NN_] [_NN_]
-1.228683  [_PUNC_] [_IN__PRP_] [_NNP_]
-0.502153  [_PUNC_] [_IN__PRP_] [_NN_]
-2.213960  [_PUNC_] [_IN__PRP_] [_VBD_]
-2.160368  [_PUNC_] [_JJ_] [_CD_]
-0.485201  [_PUNC_] [_JJ_] [_IN_]
-0.921486  [_PUNC_] [_JJ_] [_NN_]
-0.604066  [_PUNC_] [_JJ_] [_PUNC_]
-0.731182  [_PUNC_] [_NNP_] [_JJ_]
-1.505507  [_PUNC_] [_NNP_] [_NN_]
-0.413193  [_PUNC_] [_NNP_] [_PUNC_]
-2.356451  [_PUNC_] [_NN_] [_CD_]
-1.123173  [_PUNC_] [_NN_] [_IN_]
-1.177154  [_PUNC_] [_NN_] [_NNP_]
-0.314620  [_PUNC_] [_NN_] [_NN_]
-2.532542  [_PUNC_] [_NN_] [_VBD_]
-1.948965  [_PUNC_] [_NN_] [_VBP_]
-1.286955  [_PUNC_] [_NN__PRPS_] [_NNP_]
-2.186639  [_PUNC_] [_NN__PRPS_] [_RP_]
-1.555578  [_PUNC_] [_NO_FUNC_] [_VBP_]
-0.287329  [_PUNC_] [_PUNC_] </s>
-2.436163  [_PUNC_] [_PUNC_] [_CD_]
-0.829304  [_PUNC_] [_RB_] [_IN_]
-2.412516  [_PUNC_] [_RP_] [_NNS_]
-2.500602  [_PUNC_] [_VBD_] [_VBP_]
-0.894490  [_PUNC_] [_VBD__PRP_] [_NNP_]
-2.301030  [_PUNC_] [_VBD__PRP_] [_RP_]
-0.813624  [_PUNC_] [_VBP__PRP_] [_NNP_]
-2.184691  [_PUNC_] [_VBP__PRP_] [_RP_]
-4.561330  [_PUNC_] [_WP_] [_NNS_]
-0.387856  [_PUNC_] [_WP_] [_VBP_]
-1.724276  [_RB_] [_IN_] [_CD_]
-1.260946  [_RB_] [_IN_] [_NN__PRPS_]
-1.443118  [_RB_] [_IN__NNS_] [_NNP_]
-0.696945  [_RB_] [_IN__NNS_] [_NN_]
-2.066326  [_RB_] [_NN_] [_CD_]
-1.494655  [_RB_] [_NN_] [_IN__NNP_]
-3.653995  [_RB_] [_NN_] [_RP__NNP_]
-1.777766  [_RB_] [_RP__NNS_] [_NNP_]
-1.134079  [_RB_] [_RP__NNS_] [_NN_]
-1.826305  [_RB_] [_VBP_] [_CD_]
-0.176091  [_RP_] [_NNS_] [_JJ_]
-1.846691  [_RP_] [_NN__PRPS_] [_VBD_]
-0.468521  [_RP_] [_VBN_] [_NN_]
-0.459968  [_RP_] [_VBP_] [_NN_]
-1.043195  [_RP__NNP_] [_CC_] [_VBD_]
-0.177222  [_RP__NNP_] [_IN_] [_NN_]
-0.516935  [_RP__NNP_] [_IN__NN_] [_NN_]
-0.420195  [_RP__NNP_] [_NN_] [_NN_]
-0.591389  [_RP__NNP_] [_NO_FUNC_] [_NN_]
-0.408664  [_RP__NNP_] [_RB_] [_NN_]
-0.416423  [_RP__NNP_] [_VBD_] [_NN_]
-1.081759  [_RP__NNS_] [_NNP_] [_NN_]
-0.618720  [_RP__NNS_] [_NN_] [_NN_]
-0.902003  [_RP__NN_] [_IN__NNP_] [_IN__NN_]
-1.135388  [_RP__NN_] [_IN__NN_] [_IN__NN_]
-0.653504  [_RP__NN_] [_JJ_] [_IN__NN_]
-0.948281  [_RP__NN_] [_NN_] [_IN__NN_]
-3.082238  [_RP__NN_] [_NN__PRPS_] </s>
-0.124939  [_RP__VBD_] [_CD_] [_NN_]
-0.121994  [_RP__VBP_] [_CD_] [_NN_]
-0.697449  [_RP__VBP_] [_NN_] [_JJ_]
-0.124939  [_VBD_] [_CD_] [_NN_]
-0.785636  [_VBD_] [_IN__JJ_] [_IN__NN_]
-1.443118  [_VBD_] [_IN__NNS_] [_NNP_]
-0.696945  [_VBD_] [_IN__NNS_] [_NN_]
-0.967602  [_VBD_] [_IN__NN_] [_IN_]
-1.043667  [_VBD_] [_IN__NN_] [_NNP_]
-2.269563  [_VBD_] [_JJ_] [_CC__NNP_]
-1.218679  [_VBD_] [_JJ_] [_PUNC_]
-1.013926  [_VBD_] [_NNP_] [_CC_]
-1.452232  [_VBD_] [_NNP_] [_CC__NNP_]
-0.613067  [_VBD_] [_NNP_] [_IN_]
-2.824639  [_VBD_] [_NNP_] [_IN__PRP_]
-0.817187  [_VBD_] [_NNP_] [_NN_]
-3.213617  [_VBD_] [_NNS_] [_CC__NNP_]
-2.088178  [_VBD_] [_NNS_] [_IN__PRP_]
-0.769377  [_VBD_] [_NNS_] [_NN_]
-2.298527  [_VBD_] [_NNS_] [_NN__PRPS_]
-2.574629  [_VBD_] [_NNS_] [_PUNC_]
-3.260416  [_VBD_] [_NNS_] [_RP__VBD_]
-2.282692  [_VBD_] [_NNS_] [_RP__VBP_]
-1.389166  [_VBD_] [_NNS_] [_VBD_]
-1.292731  [_VBD_] [_NN_] [_CC_]
-2.711749  [_VBD_] [_NN_] [_CC__NNP_]
-0.832477  [_VBD_] [_NN_] [_IN_]
-1.779321  [_VBD_] [_NN_] [_IN__NNP_]
-1.000263  [_VBD_] [_NN_] [_IN__NN_]
-2.272387  [_VBD_] [_NN_] [_IN__PRP_]
-0.590669  [_VBD_] [_NN_] [_JJ_]
-0.521879  [_VBD_] [_NN_] [_NN_]
-1.401432  [_VBD_] [_NN_] [_PUNC_]
-4.364518  [_VBD_] [_NN_] [_RP__NNP_]
-3.077967  [_VBD_] [_NN__PRPS_] [_CC__CC__PRP_]
-0.445290  [_VBD_] [_NN__PRPS_] [_IN_]
-2.082416  [_VBD_] [_NN__PRPS_] [_IN__PRP_]
-0.989358  [_VBD_] [_NN__PRPS_] [_NN_]
-1.928361  [_VBD_] [_NN__PRPS_] [_VBP_]
-0.970398  [_VBD_] [_NO_FUNC_] [_PUNC_]
-1.777766  [_VBD_] [_RP__NNS_] [_NNP_]
-1.134079  [_VBD_] [_RP__NNS_] [_NN_]
-4.236420  [_VBD_] [_VBD__PRP_] [_CC__CC__PRP_]
-1.068186  [_VBD_] [_VBP_] [_CC_]
-0.616526  [_VBD_] [_VBP_] [_IN__NN_]
-0.745967  [_VBD_] [_VBP_] [_NN_]
-4.135443  [_VBD_] [_VBP_] [_RP__NN_]
-0.625249  [_VBD__PRP_] [_CC__CC__PRP_] [_VBP_]
-1.433896  [_VBD__PRP_] [_IN_] [_JJ_]
-1.235528  [_VBD__PRP_] [_IN_] [_NNS_]
-0.516935  [_VBD__PRP_] [_IN__NN_] [_NN_]
-0.331374  [_VBD__PRP_] [_JJ_] [_IN_]
-0.765030  [_VBD__PRP_] [_JJ_] [_NN_]
-2.423172  [_VBD__PRP_] [_JJ_] [_VBP_]
-3.691290  [_VBD__PRP_] [_NNP_] [_VBN_]
-2.712574  [_VBD__PRP_] [_NNP_] [_VBP_]
-0.554915  [_VBD__PRP_] [_NN_] [_JJ_]
-1.494850  [_VBD__PRP_] [_NN_] [_NNS_]
-0.352183  [_VBD__PRP_] [_RB_] [_IN_]
-1.537646  [_VBD__PRP_] [_RB_] [_NN_]
-1.750072  [_VBD__PRP_] [_RB_] [_VBP_]
-1.793007  [_VBD__PRP_] [_RP_] [_VBN_]
-0.089291  [_VBD__PRP_] [_RP_] [_VBP_]
-1.831896  [_VBN_] [_IN_] [_CC__PRP_]
-3.464912  [_VBN_] [_IN_] [_VBP_]
-2.702379  [_VBN_] [_NNS_] [_IN__PRP_]
-3.126794  [_VBN_] [_NNS_] [_NN__PRPS_]
-2.137869  [_VBN_] [_NN_] [_PUNC_]
-0.868474  [_VBP_] [_CC_] [_NN_]
-1.456746  [_VBP_] [_CC_] [_PUNC_]
-0.371225  [_VBP_] [_CC__VBD_] [_NN_]
-2.440647  [_VBP_] [_CC__VBD_] [_VBD_]
-1.847730  [_VBP_] [_CC__VBD_] [_VBP_]
-0.121994  [_VBP_] [_CD_] [_NN_]
-0.787106  [_VBP_] [_CD_] [_PUNC_]
-2.228768  [_VBP_] [_IN_] [_CC__PRP_]
-1.160064  [_VBP_] [_IN_] [_NNP_]
-1.204774  [_VBP_] [_IN_] [_NNS_]
-0.211098  [_VBP_] [_IN_] [_NN_]
-3.868573  [_VBP_] [_IN_] [_VBP_]
-0.724781  [_VBP_] [_IN__NNP_] [_IN_]
-0.902003  [_VBP_] [_IN__NNP_] [_IN__NN_]
-2.936353  [_VBP_] [_IN__NNP_] [_IN__PRP_]
-1.091802  [_VBP_] [_IN__NNP_] [_NN_]
-99.000000 [_VBP_] [_IN__NNP_] [_NO_FUNC_]
-3.488119  [_VBP_] [_IN__NNP_] [_RB_]
-1.779777  [_VBP_] [_IN__NNP_] [_VBD_]
-0.967602  [_VBP_] [_IN__NN_] [_IN_]
-1.914446  [_VBP_] [_IN__NN_] [_IN__NNP_]
-1.135388  [_VBP_] [_IN__NN_] [_IN__NN_]
-0.712196  [_VBP_] [_IN__NN_] [_JJ_]
-1.043667  [_VBP_] [_IN__NN_] [_NNP_]
-0.516935  [_VBP_] [_IN__NN_] [_NN_]
-1.811325  [_VBP_] [_IN__NN_] [_NN__PRPS_]
-1.228683  [_VBP_] [_IN__PRP_] [_NNP_]
-1.284541  [_VBP_] [_IN__PRP_] [_NNS_]
-0.502153  [_VBP_] [_IN__PRP_] [_NN_]
-2.101602  [_VBP_] [_NNS_] [_IN__PRP_]
-2.261120  [_VBP_] [_NNS_] [_NN__PRPS_]
-1.405627  [_VBP_] [_NN_] [_CC_]
-0.740515  [_VBP_] [_NN_] [_IN_]
-1.809132  [_VBP_] [_NN_] [_IN__NNS_]
-2.005275  [_VBP_] [_NN_] [_IN__NN__PRPS_]
-3.956288  [_VBP_] [_NN_] [_IN__NN__PRP_]
-2.180425  [_VBP_] [_NN_] [_IN__PRP_]
-0.697449  [_VBP_] [_NN_] [_JJ_]
-1.340901  [_VBP_] [_NN_] [_NNP_]
-1.340901  [_VBP_] [_NN_] [_NNS_]
-0.575176  [_VBP_] [_NN_] [_NN_]
-1.340901  [_VBP_] [_NN_] [_PUNC_]
-4.218654  [_VBP_] [_NN_] [_RP__NNS_]
-2.551755  [_VBP_] [_NN_] [_VBD_]
-2.551755  [_VBP_] [_NN_] [_VBP_]
-0.833251  [_VBP_] [_NN__PRPS_] [_JJ_]
-2.214667  [_VBP_] [_NN__PRPS_] [_RB_]
-0.591389  [_VBP_] [_NO_FUNC_] [_NN_]
-1.692677  [_VBP_] [_RB_] [_IN__NNS_]
-4.026878  [_VBP_] [_RB_] [_RP__NNS_]
-0.849532  [_VBP_] [_RP__NNP_] [_IN_]
-1.026754  [_VBP_] [_RP__NNP_] [_IN__NN_]
-1.145258  [_VBP_] [_RP__NNP_] [_NN_]
-99.000000 [_VBP_] [_RP__NNP_] [_NO_FUNC_]
-2.562264  [_VBP_] [_RP__NNP_] [_RB_]
-1.618745  [_VBP_] [_RP__NNP_] [_VBD_]
-1.379761  [_VBP_] [_RP__NN_] [_IN__NNP_]
-0.600703  [_VBP_] [_RP__NN_] [_IN__NN_]
-0.882887  [_VBP_] [_RP__NN_] [_JJ_]
-0.778151  [_VBP_] [_RP__NN_] [_NN_]
-2.072541  [_VBP_] [_RP__NN_] [_NN__PRPS_]
-2.497203  [_VBP_] [_VBD_] [_IN__NNS_]
-6.117696  [_VBP_] [_VBD_] [_RP__NNS_]
-1.240332  [_VBP_] [_VBD__PRP_] [_JJ_]
-2.341989  [_VBP_] [_VBD__PRP_] [_RB_]
-1.385036  [_VBP_] [_VBP_] [_NN_]
-3.691290  [_VBP__PRP_] [_NNP_] [_VBN_]
-2.712574  [_VBP__PRP_] [_NNP_] [_VBP_]
-1.793007  [_VBP__PRP_] [_RP_] [_VBN_]
-0.089291  [_VBP__PRP_] [_RP_] [_VBP_]
-0.543793  [_WP_] [_NNS_] [_JJ_]
-1.846691  [_WP_] [_NN__PRPS_] [_VBD_]
-1.593286  [_WP_] [_VBD_] [_NNS_]
-2.459392  [_WP_] [_VBN_] [_NNS_]
-1.411749  [_WP_] [_VBP_] [_NNS_]
-0.547969  [_WP_] [_VBP_] [_NN_]
-1.453810  [_WP_] [_VBP_] [_NN__PRPS_]
-5.496186  [_WP_] [_VBP_] [_VBD__PRP_]

\end\
