
\data\
ngram 1=25
ngram 2=345
ngram 3=2251

\1-grams:
-1.587189	</s>
-99	<s>	-2.465607
-1.083466	CC	-3.316449
-1.523386	CD	-2.782157
-2.224518	DT	-2.17423
-4.712114	FW	-1.126917
-0.8745812	IN	-3.102824
-1.033275	JJ	-3.144334
-0.5913892	NN	-3.011983
-1.01423	NNP	-2.590091
-4.286154	NNPS	-0.6391101
-1.514571	NNS	-2.091825
-2.452852	NO_FUNC	-1.743003
-4.888198	NUMERIC_COMMA	-0.4639087
-1.75484	PRP	-2.169286
-1.759335	PRPS	-2.380028
-0.9703984	PUNC	-3.035564
-2.369047	RB	-1.538714
-2.114432	RP	-2.260669
-3.910493	UH	-1.960268
-1.36767	VBD	-2.622772
-4.344145	VBI	-0.5985174
-2.25123	VBN	-2.454555
-1.555578	VBP	-2.369627
-1.924195	WP	-2.940495

\2-grams:
-0.1272242	<s> CC	-1.924221
-1.715678	<s> CD	-1.494061
-3.602169	<s> DT
-1.633686	<s> IN	-0.7602829
-3.602169	<s> JJ
-1.989385	<s> NN	0.06883615
-0.7839426	<s> NNP	-2.190953
-2.522987	<s> NNS	-1.034941
-2.170805	<s> NO_FUNC	-0.2437391
-2.522987	<s> PUNC	-0.3774309
-2.903198	<s> RB	-0.6666386
-2.259746	<s> RP	-1.337117
-2.699079	<s> VBD	-0.05183575
-1.886165	<s> VBN	-1.387573
-2.824017	<s> VBP	-0.1264493
-1.485681	CC CC	2.187294
-1.62581	CC CD	-0.4417832
-1.941464	CC DT	-1.242281
-1.283649	CC IN	-0.7578599
-1.46633	CC JJ	-0.1938821
-0.6776819	CC NN	0.6926131
-1.042108	CC NNP	0.01170921
-1.353768	CC NNS	-0.128201
-2.628695	CC NO_FUNC	-0.4809475
-1.188311	CC PRP	0.01401305
-1.593933	CC PUNC	-1.448341
-2.299637	CC RB	-0.4440279
-1.676064	CC RP	0.1160607
-3.53372	CC UH	-0.3651475
-0.5859886	CC VBD	1.257762
-4.105817	CC VBI
-1.732905	CC VBN	0.9784684
-1.012745	CC VBP	0.0476923
-2.171318	CC WP	0.6310306
-1.217905	CD CC	-0.4974204
-2.88846	CD CD	-0.4859825
-1.169682	CD IN	-0.006789923
-1.88846	CD JJ	-0.6370878
-0.6252189	CD NN	-0.931217
-1.49052	CD NNP	-1.837367
-2.064552	CD NNS	-0.1956844
-2.666612	CD NO_FUNC	0.05307847
-3.365582	CD NUMERIC_COMMA	0
-3.666612	CD PRP
-0.2498047	CD PUNC	-0.4775209
-2.50292	CD RB	-0.4745703
-2.967642	CD RP	-0.02105117
-2.2864	CD VBD	-0.5110777
-2.712369	CD VBP	0.1209611
-2.552668	CD WP	0.2779651
-1.687857	DT CC	-0.4046614
-1.250608	DT CD	0.3906685
-1.364551	DT IN	-0.6723096
-1.762491	DT JJ	0.05736667
-0.1855741	DT NN	0.1684952
-2.966611	DT NNP
-1.017221	DT NNS	-0.07593518
-2.394514	DT NO_FUNC
-2.174219	DT PRP	-0.462299
-1.343362	DT PUNC	-0.3251159
-2.267641	DT RP	-0.6673984
-2.063521	DT VBD	-0.3493828
-2.394514	DT VBN	-0.455932
-1.852668	DT VBP	-0.1931807
-1.604883	DT WP	-0.3831192
-0.02996322	FW PUNC
-1.634395	IN CC	-0.5284576
-1.505845	IN CD	-0.8498421
-1.750065	IN DT	-0.1379957
-3.035977	IN IN	0.01028287
-1.701947	IN JJ	-0.4002725
-0.1875935	IN NN	-0.006202221
-0.9328939	IN NNP	1.164165
-3.522339	IN NNPS	-0.1918855
-1.139219	IN NNS	0.4033816
-2.558856	IN NO_FUNC	0.2662222
-1.322619	IN PRP	0.1914566
-2.102543	IN PUNC	-1.254015
-2.536579	IN RB	-0.0620712
-3.360488	IN RP	-0.888623
-4.013701	IN VBD	-0.2452376
-3.536579	IN VBP	-0.1264493
-2.207521	IN WP	-0.4820703
-0.9467568	JJ CC	0.197592
-2.317155	JJ CD	-0.6381156
-2.708846	JJ DT	-0.6108807
-0.4602594	JJ IN	-0.3353057
-0.9946356	JJ JJ	-0.07412195
-1.062932	JJ NN	0.5374045
-1.223023	JJ NNP	-1.173012
-3.583907	JJ NNPS	-0.3679768
-1.962879	JJ NNS	-0.1369478
-2.599701	JJ NO_FUNC	-0.2409467
-2.57622	JJ PRP	-0.2295286
-2.979913	JJ PRPS	-0.08052224
-0.7398626	JJ PUNC	0.6435633
-2.247519	JJ RB	-0.1289084
-2.012989	JJ RP	0.1252545
-4.156003	JJ UH
-1.625804	JJ VBD	0.284304
-2.44	JJ VBN	-0.9671196
-1.749463	JJ VBP	-0.02933764
-1.583132	JJ WP	-0.7989427
-1.309621	NN CC	0.1185818
-1.819719	NN CD	0.510321
-2.335419	NN DT	-0.02076745
-0.8462067	NN IN	0.1123688
-0.695487	NN JJ	-0.4454167
-0.5654936	NN NN	0.08845043
-1.137875	NN NNP	1.433926
-4.597871	NN NNPS
-1.467859	NN NNS	1.51778
-2.427609	NN NO_FUNC	0.3886883
-2.849683	NN PRP	-0.9360318
-1.207112	NN PRPS	0.8849785
-1.020034	NN PUNC	0.3233204
-2.4975	NN RB	-0.1106683
-2.247622	NN RP	0.4573161
-4.597871	NN UH
-1.960381	NN VBD	0.7266731
-2.544792	NN VBN	-0.4821385
-2.047642	NN VBP	-0.539505
-1.856719	NN WP	-0.7311394
-0.947161	NNP CC	-0.6661303
-1.239037	NNP CD	-0.02843356
-3.061104	NNP DT	-0.4371957
-0.849532	NNP IN	-0.02306819
-1.148514	NNP JJ	-0.7948048
-1.145258	NNP NN	0.1506592
-0.5837604	NNP NNP	-0.2163172
-2.476078	NNP NNS	-0.3659647
-2.63098	NNP NO_FUNC	-0.3976838
-2.832625	NNP PRP	-0.176087
-3.874018	NNP PRPS	-0.4321132
-0.6782564	NNP PUNC	0.5462403
-2.562264	NNP RB	0.3476046
-2.396896	NNP RP	-0.2391197
-4.175048	NNP UH
-1.618745	NNP VBD	0.67924
-2.81332	NNP VBN	0.1545535
-1.834604	NNP VBP	0.07914531
-1.70818	NNP WP	-0.6038384
-0.9542425	NNPS CC
-0.6532125	NNPS IN	-0.02212909
-0.9542425	NNPS JJ
-0.9542425	NNPS NNP
-0.6532125	NNPS NO_FUNC	-0.4292233
-0.9542425	NNPS PUNC
-1.123319	NNS CC	-0.6644304
-2.276829	NNS CD	-0.543573
-2.560826	NNS DT	-0.5786961
-0.741282	NNS IN	-0.3305614
-0.5437926	NNS JJ	0.4362317
-0.8031964	NNS NN	0.5919325
-1.446883	NNS NNP	0.467427
-1.725379	NNS NNS	0.3970948
-2.294558	NNS NO_FUNC	0.001787424
-2.771679	NNS PRP	-0.6560044
-1.34639	NNS PRPS	-0.05093467
-1.013904	NNS PUNC	0.3834978
-2.373739	NNS RB	0.4335855
-2.106568	NNS RP	0.1625214
-1.692498	NNS VBD	-0.7130545
-2.094986	NNS VBN	-0.3453456
-1.701641	NNS VBP	-0.659301
-1.547665	NNS WP	-0.2655072
-1.149988	NO_FUNC CC	-0.3381033
-1.588357	NO_FUNC CD	-0.1469694
-2.179952	NO_FUNC DT
-0.5319403	NO_FUNC IN	-0.8429881
-1.061852	NO_FUNC JJ	-0.1815752
-0.6059204	NO_FUNC NN	-0.245487
-1.28965	NO_FUNC NNP	-0.1109427
-1.638105	NO_FUNC NNS	0.1192623
-2.179952	NO_FUNC NO_FUNC	-0.3534617
-2.179952	NO_FUNC PRP	-0.3373602
-0.9811965	NO_FUNC PUNC	0.07200927
-2.451018	NO_FUNC RB
-1.588357	NO_FUNC RP	-0.1145564
-1.752048	NO_FUNC VBD	0.144637
-2.451018	NO_FUNC VBN
-1.848958	NO_FUNC VBP	-0.2618176
-1.959657	NO_FUNC WP	-0.1042973
-0.1760913	NUMERIC_COMMA CD	-0.3596356
-1.334518	PRP CC	-0.3131908
-1.855105	PRP CD	0.454616
-2.258797	PRP DT	-0.4905137
-0.7222384	PRP IN	0.2041428
-1.2227	PRP JJ	-0.6737086
-0.5604063	PRP NN	-0.04805112
-1.194339	PRP NNP	-0.8779697
-1.405504	PRP NNS	-0.709363
-2.258797	PRP NO_FUNC	-0.600134
-2.642496	PRP PRP
-1.023268	PRP PUNC	-0.5585632
-2.003524	PRP RB	0.08434904
-1.38181	PRP RP	-0.4506235
-3.434888	PRP UH
-1.217404	PRP VBD	-0.7054718
-2.204439	PRP VBN	-0.327855
-1.112669	PRP VBP	0.3116316
-2.112669	PRP WP	-0.6446407
-1.006804	PRPS CC	-0.3628899
-1.70741	PRPS CD	-0.5412516
-2.859589	PRPS DT	-0.1433049
-0.452137	PRPS IN	0.249902
-0.8167881	PRPS JJ	0.3413477
-0.9955227	PRPS NN	-0.8100338
-1.314414	PRPS NNP	-0.2385526
-1.969287	PRPS NNS	-0.5465406
-2.267994	PRPS NO_FUNC	-0.3360876
-2.639294	PRPS PRP	-0.2577826
-0.8178435	PRPS PUNC	-0.5437111
-2.255594	PRPS RB	-0.01115614
-2.069957	PRPS RP	-0.805715
-3.431685	PRPS UH
-1.840621	PRPS VBD	-0.1172013
-2.653534	PRPS VBN	-0.1765873
-1.913171	PRPS VBP	-0.3920594
-1.940324	PRPS WP	-0.3752912
-0.6168167	PUNC </s>
-0.9510013	PUNC CC	0.1389694
-0.9699231	PUNC CD	-0.948032
-2.627812	PUNC DT	-0.1837616
-3.64678	PUNC FW	0.5740313
-1.225441	PUNC IN	0.4182146
-1.581387	PUNC JJ	-0.1994665
-0.9081834	PUNC NN	0.2396305
-1.133586	PUNC NNP	-0.9784286
-1.978328	PUNC NNS	0.487301
-2.519907	PUNC NO_FUNC	-0.06868809
-2.662574	PUNC PRP	-0.5010222
-0.8796241	PUNC PUNC	0.02368307
-2.486483	PUNC RB	-0.08127022
-1.973364	PUNC RP	-0.1122102
-3.177484	PUNC UH	-0.1026623
-1.241153	PUNC VBD	0.125579
-3.440726	PUNC VBI	-0.1760913
-2.367618	PUNC VBN	-0.465553
-1.686122	PUNC VBP	-0.1322738
-2.045691	PUNC WP	-0.1062644
-1.144225	RB CC	0.3603215
-1.670729	RB CD	-0.7265072
-0.6330236	RB IN	-0.4907995
-1.688293	RB JJ	-0.5689927
-0.4670648	RB NN	0.4223757
-1.630301	RB NNP	-0.03140813
-1.512201	RB NNS	-0.1478335
-1.670729	RB NO_FUNC	-0.09196249
-2.262324	RB PRP
-0.8999223	RB PUNC	-0.3888928
-2.262324	RB RB	-0.4208518
-1.720477	RB RP	0.2775678
-1.329271	RB VBD	-0.3024231
-2.042029	RB VBN	-0.1549019
-1.834421	RB VBP	0.1264272
-2.042029	RB WP	-0.2950953
-1.258913	RP CC	-0.4758278
-2.124214	RP CD	0.3650624
-2.777427	RP DT
-1.143958	RP IN	-0.1955962
-1.154178	RP JJ	-0.3401144
-1.154178	RP NN	-0.7529199
-2.286065	RP NNP
-2.300306	RP NNS	-0.330883
-2.078457	RP NO_FUNC	-0.4784004
-2.078457	RP PRP	-0.6439309
-2.777427	RP PRPS	-0.2879773
-1.914765	RP PUNC	-0.3516701
-1.510255	RP RB	-1.091716
-1.534389	RP VBD	-0.05638093
-1.388261	RP VBN	-0.7943888
-0.236472	RP VBP	0.5162635
-2.777427	RP WP	-0.2803885
-1.342423	UH CC
-0.6434527	UH IN	0.2584493
-0.7703259	UH NN	-0.339276
-1.342423	UH NNP
-0.550031	UH PUNC	-0.2395798
-1.342423	UH RP
-1.041393	UH VBP	-0.3166351
-1.041393	UH WP
-1.427716	VBD CC	-1.075388
-2.140927	VBD CD	0.0185343
-2.15007	VBD DT	-0.9485254
-0.7159772	VBD IN	-0.3232765
-1.562097	VBD JJ	-1.234403
-0.3833094	VBD NN	-0.218163
-0.8588526	VBD NNP	-0.1015856
-1.353821	VBD NNS	0.1133244
-2.646077	VBD NO_FUNC	-0.2378955
-1.220108	VBD PRP	-0.6245768
-1.44377	VBD PUNC	-0.605435
-2.097892	VBD RB	-0.7747133
-3.250071	VBD RP	-0.1002324
-2.345047	VBD VBD	-0.1421614
-3.123198	VBD VBN	0.04898643
-1.753982	VBD VBP	-0.8025001
-2.658477	VBD WP	-0.1271728
-0.90309	VBI IN
-0.60206	VBI NN
-0.60206	VBI NNP
-0.60206	VBI PRP
-1.122464	VBN CC	-0.7463461
-1.987766	VBN CD	-0.829335
-1.778317	VBN DT	-0.2458431
-0.333482	VBN IN	0.07166719
-1.27925	VBN JJ	-0.5858148
-0.544068	VBN NN	-0.09323633
-1.711559	VBN NNP	0.06370798
-1.450646	VBN NNS	0.1974193
-2.942008	VBN NO_FUNC
-1.79588	VBN PUNC	-0.6049951
-1.828065	VBN RB	-0.5912765
-2.163857	VBN RP	-0.7116875
-2.942008	VBN WP
-1.274138	VBP CC	-0.3058639
-1.952732	VBP CD	-0.8131652
-1.89361	VBP DT	-0.2731494
-0.5101215	VBP IN	-0.3319938
-1.435316	VBP JJ	-0.7211719
-0.4801583	VBP NN	0.002113819
-1.214017	VBP NNP	0.09839463
-1.322219	VBP NNS	-0.002406359
-2.236033	VBP NO_FUNC	-0.4698004
-1.148252	VBP PRP	-0.5078444
-1.497253	VBP PUNC	-0.2343799
-1.909697	VBP RB	-0.2836624
-2.29155	VBP RP	0.1900824
-2.935003	VBP VBD	-0.4670863
-2.841582	VBP VBN	-0.3312248
-2.35522	VBP VBP	0.4062888
-2.378701	VBP WP	-0.4813445
-1.86735	WP CC	-0.5998333
-1.674225	WP IN	-0.08152747
-2.693193	WP JJ
-2.26529	WP NN	-0.67114
-3.26529	WP NNP
-1.66323	WP NO_FUNC	-0.8500117
-2.151346	WP PRP	0.07259293
-2.311047	WP PUNC	-0.4153687
-1.532896	WP RP	-1.276151
-0.3709736	WP VBD	-0.04203606
-0.9819884	WP VBN	-1.008746
-0.4385671	WP VBP	-0.8739887

\3-grams:
-1.371141	<s> CC CC
-2.571854	<s> CC DT
-1.043581	<s> CC IN
-2.395763	<s> CC JJ
-1.588454	<s> CC NN
-2.433552	<s> CC NNP
-2.997823	<s> CC NNS
-3.173914	<s> CC NO_FUNC
-2.298853	<s> CC PRP
-2.520702	<s> CC RB
-1.675604	<s> CC RP
-0.1789377	<s> CC VBD
-1.550665	<s> CC VBN
-0.963061	<s> CC VBP
-2.360065	CC CC CC
-2.143015	CC CC CD
-2.726418	CC CC DT
-1.239925	CC CC IN
-2.360065	CC CC JJ
-0.8277444	CC CC NN
-1.506193	CC CC NNP
-1.506193	CC CC NNS
-2.360065	CC CC NO_FUNC
-0.7940612	CC CC PRP
-2.726418	CC CC PUNC
-2.319106	CC CC RB
-2.360065	CC CC RP
-0.4678477	CC CC VBD
-1.364864	CC CC VBN
-1.063834	CC CC VBP
-2.143015	CC CC WP
-2.147676	CD CC CC
-0.1348391	CD CC CD
-2.188635	CD CC DT
-2.188635	CD CC IN
-1.846646	CD CC NN
-2.147676	CD CC NNP
-1.670555	CD CC PRP
-2.147676	CD CC PUNC
-2.147676	CD CC RP
-0.9573447	CD CC VBD
-1.448706	CD CC VBP
-1.971585	CD CC WP
-0.8016323	DT CC CC
-0.9777236	DT CC DT
-0.9777236	DT CC PRP
-0.5006024	DT CC VBD
-0.9777236	DT CC VBP
-2.379306	IN CC CD
-1.902184	IN CC DT
-2.420264	IN CC IN
-2.379306	IN CC JJ
-0.579965	IN CC NN
-1.401582	IN CC NNP
-1.318608	IN CC NNS
-2.420264	IN CC NO_FUNC
-0.6847003	IN CC PRP
-1.161822	IN CC PUNC
-2.203214	IN CC RP
-0.9813655	IN CC VBD
-1.680336	IN CC VBN
-0.6980643	IN CC VBP
-1.556034	JJ CC CC
-2.130066	JJ CC CD
-2.095304	JJ CC DT
-1.389703	JJ CC IN
-0.743864	JJ CC JJ
-0.5697604	JJ CC NN
-1.213612	JJ CC NNP
-1.209247	JJ CC NNS
-2.732126	JJ CC NO_FUNC
-1.192214	JJ CC PRP
-1.528006	JJ CC PUNC
-2.033156	JJ CC RB
-1.641045	JJ CC RP
-0.9539744	JJ CC VBD
-2.130066	JJ CC VBN
-1.063119	JJ CC VBP
-2.005127	JJ CC WP
-1.607008	NN CC CC
-1.644796	NN CC CD
-1.987219	NN CC DT
-1.353751	NN CC IN
-1.616151	NN CC JJ
-0.3624217	NN CC NN
-1.419018	NN CC NNP
-1.089592	NN CC NNS
-2.686189	NN CC NO_FUNC
-1.167675	NN CC PRP
-1.625491	NN CC PUNC
-2.246856	NN CC RB
-1.589279	NN CC RP
-1.035396	NN CC VBD
-1.873276	NN CC VBN
-1.081423	NN CC VBP
-2.209068	NN CC WP
-1.812913	NNP CC CC
-2.449735	NNP CC CD
-2.051795	NNP CC DT
-1.671584	NNP CC IN
-1.829947	NNP CC JJ
-0.5884002	NNP CC NN
-0.438306	NNP CC NNP
-1.335792	NNP CC NNS
-1.273644	NNP CC PRP
-1.364564	NNP CC PUNC
-2.227887	NNP CC RB
-2.113943	NNP CC RP
-1.043195	NNP CC VBD
-1.905667	NNP CC VBN
-1.358655	NNP CC VBP
-1.997438	NNP CC WP
-1.597208	NNS CC CC
-1.64836	NNS CC CD
-1.437507	NNS CC IN
-1.55145	NNS CC JJ
-0.5100573	NNS CC NN
-1.64836	NNS CC NNP
-0.5602239	NNS CC NNS
-1.25042	NNS CC PRP
-2.25042	NNS CC PUNC
-1.597208	NNS CC RP
-1.136477	NNS CC VBD
-1.472269	NNS CC VBN
-1.089052	NNS CC VBP
-1.124939	NO_FUNC CC IN
-0.5606673	NO_FUNC CC NN
-1.124939	NO_FUNC CC NNS
-0.8239087	NO_FUNC CC PRP
-0.69897	NO_FUNC CC VBD
-1	NO_FUNC CC VBP
-1.840299	PRP CC CC
-1.799341	PRP CC DT
-0.8216169	PRP CC IN
-0.9542425	PRP CC NN
-1.100371	PRP CC PRP
-1.799341	PRP CC PUNC
-1.799341	PRP CC RB
-2.206652	PRP CC RP
-0.9242793	PRP CC VBD
-1.799341	PRP CC VBN
-0.447158	PRP CC VBP
-1.278754	PRPS CC CC
-2.123852	PRPS CC DT
-1.123852	PRPS CC IN
-2.123852	PRPS CC JJ
-0.4036923	PRPS CC NN
-1.64673	PRPS CC NNP
-1.470639	PRPS CC NNS
-1.278754	PRPS CC PRP
-1.470639	PRPS CC PUNC
-2.123852	PRPS CC RB
-1.470639	PRPS CC RP
-0.8808136	PRPS CC VBD
-0.9197317	PRPS CC VBP
-2.16481	PRPS CC WP
-1.192328	PUNC CC CC
-2.012603	PUNC CC CD
-1.568905	PUNC CC DT
-1.250842	PUNC CC IN
-1.688092	PUNC CC JJ
-0.7586729	PUNC CC NN
-0.8596355	PUNC CC NNP
-1.634407	PUNC CC NNS
-2.790754	PUNC CC NO_FUNC
-1.039989	PUNC CC PRP
-1.676811	PUNC CC PUNC
-2.313633	PUNC CC RB
-1.568905	PUNC CC RP
-0.6185406	PUNC CC VBD
-1.945656	PUNC CC VBN
-1.103523	PUNC CC VBP
-2.012603	PUNC CC WP
-1.796478	RB CC CC
-1.213075	RB CC DT
-1.213075	RB CC IN
-0.9120448	RB CC NN
-1.389166	RB CC NNP
-1.213075	RB CC NNS
-1.796478	RB CC PRP
-0.6488034	RB CC VBD
-1.088136	RB CC VBP
-1.518514	RP CC CC
-1.559473	RP CC DT
-0.4973246	RP CC NN
-0.8653014	RP CC NNP
-1.518514	RP CC NNS
-0.5185139	RP CC PRP
-1.217484	RP CC VBD
-1.518514	RP CC VBP
-1.91733	VBD CC DT
-2.093422	VBD CC IN
-0.5882717	VBD CC NN
-1.139179	VBD CC NNP
-1.280508	VBD CC NNS
-2.093422	VBD CC NO_FUNC
-0.8381492	VBD CC PRP
-0.6701758	VBD CC PUNC
-1.792392	VBD CC RP
-0.9472936	VBD CC VBD
-1.792392	VBD CC VBN
-1.164003	VBD CC VBP
-2.093422	VBD CC WP
-1.518514	VBN CC IN
-0.8653014	VBN CC NN
-0.7056006	VBN CC NNP
-0.7781513	VBN CC NNS
-1.518514	VBN CC PRP
-0.7056006	VBN CC VBN
-0.7781513	VBN CC VBP
-2.058805	VBP CC CC
-2.058805	VBP CC CD
-1.757776	VBP CC DT
-1.757776	VBP CC IN
-0.8684738	VBP CC NN
-1.405593	VBP CC NNP
-2.099764	VBP CC NNS
-0.9126775	VBP CC PRP
-1.456746	VBP CC PUNC
-2.058805	VBP CC RB
-1.155715	VBP CC RP
-1.581684	VBP CC VBD
-1.359836	VBP CC VBN
-0.3730637	VBP CC VBP
-1.757776	VBP CC WP
-0.3565473	WP CC VBD
-0.49485	WP CC VBP
-1.09691	WP CC WP
-1.414973	<s> CD NNP
-0.09275405	<s> CD PUNC
-0.8507019	<s> CD VBD
-1.576917	CC CD CC
-1.333879	CC CD IN
-1.400826	CC CD JJ
-0.6876153	CC CD NN
-2.002886	CC CD NNP
-1.877947	CC CD NNS
-0.1855407	CC CD PUNC
-0.06694679	CD CD PUNC
-1.113943	DT CD CC
-0.5698753	DT CD IN
-0.8129134	DT CD JJ
-1.822285	DT CD NN
-0.5118834	DT CD PUNC
-1.414973	DT CD WP
-1.229102	IN CD CC
-0.9893419	IN CD IN
-1.662758	IN CD JJ
-0.3664061	IN CD NN
-0.6785521	IN CD NNP
-1.808886	IN CD NNS
-2.507856	IN CD NO_FUNC
-0.8176598	IN CD PUNC
-2.331765	IN CD VBD
-0.3073702	JJ CD NN
-1.537819	JJ CD NNS
-0.3916911	JJ CD PUNC
-1.537819	JJ CD WP
-1.221849	NN CD CC
-2	NN CD CD
-0.8750613	NN CD IN
-2.884433	NN CD JJ
-0.3172534	NN CD NN
-2.176091	NN CD NNP
-2.30103	NN CD NNS
-2.51808	NN CD NO_FUNC
-0.5794942	NN CD PUNC
-2.176091	NN CD VBD
-2.176091	NN CD WP
-1.981768	NNP CD CC
-1.473613	NNP CD IN
-2.675939	NNP CD JJ
-1.613791	NNP CD NN
-2.634981	NNP CD NNP
-2.333951	NNP CD NNS
-2.458889	NNP CD NO_FUNC
-0.04447334	NNP CD PUNC
-2.458889	NNP CD RP
-2.634981	NNP CD VBD
-2.634981	NNP CD VBP
-2.458889	NNP CD WP
-0.1674911	NNS CD CC
-0.79588	NNS CD NN
-0.9208187	NNS CD PUNC
-0.243038	NO_FUNC CD NN
-0.544068	NO_FUNC CD PUNC
-0.1760913	NUMERIC_COMMA CD NN
-1.686065	PRP CD IN
-0.2575643	PRP CD NN
-1.278754	PRP CD NNS
-1.686065	PRP CD PUNC
-1.423246	PRPS CD CC
-0.2191259	PRPS CD NN
-1.122216	PRPS CD NNS
-0.6103325	PRPS CD PUNC
-1.036766	PUNC CD CC
-1.262182	PUNC CD IN
-2.248954	PUNC CD JJ
-0.8356538	PUNC CD NN
-2.771832	PUNC CD NNP
-2.294711	PUNC CD NNS
-0.1618824	PUNC CD PUNC
-2.470802	PUNC CD RB
-2.771832	PUNC CD VBD
-0.243038	RB CD NN
-0.544068	RB CD VBP
-0.6941711	RP CD NN
-0.4771213	RP CD PUNC
-1.20412	VBD CD IN
-0.1249387	VBD CD NN
-1.380211	VBD CD NNS
-1.787523	VBD CD PUNC
-0.6532125	VBN CD JJ
-0.1760913	VBN CD NN
-1.213075	VBP CD IN
-0.1219944	VBP CD NN
-0.7871061	VBP CD PUNC
-1.562293	CC DT CC
-0.9090803	CC DT IN
-1.687232	CC DT JJ
-0.2101104	CC DT NN
-1.164353	CC DT NNS
-1.687232	CC DT PRP
-1.687232	CC DT RP
-1.386202	CC DT VBP
-1.261263	CC DT WP
-1.661576	IN DT CC
-1.485485	IN DT IN
-2.670948	IN DT JJ
-0.1381548	IN DT NN
-1.133302	IN DT NNS
-2.263636	IN DT NO_FUNC
-1.184455	IN DT PUNC
-2.263636	IN DT VBD
-2.087545	IN DT VBN
-2.304595	IN DT VBP
-2.670948	IN DT WP
-0.3679768	JJ DT CD
-0.30103	JJ DT NN
-1.961421	NN DT CC
-0.8645111	NN DT CD
-1.4843	NN DT IN
-1.961421	NN DT JJ
-0.2496139	NN DT NN
-0.8000531	NN DT NNS
-2.368733	NN DT PUNC
-1.78533	NN DT VBD
-1.4843	NN DT WP
-0.845098	NNP DT CD
-0.1918855	NNP DT NN
-0.845098	NNP DT NNS
-0.1597008	NNS DT CD
-0.6368221	NNS DT NN
-0.1760913	PRP DT NN
-0.8750613	PRP DT NNS
-0.8750613	PRP DT PUNC
-0.1249387	PRPS DT NN
-1.290035	PUNC DT CD
-0.2293368	PUNC DT NN
-0.8129134	PUNC DT NNS
-1.290035	PUNC DT VBP
-1.290035	PUNC DT WP
-1.371068	VBD DT JJ
-0.1280298	VBD DT NN
-0.8939466	VBD DT NNS
-1.194977	VBD DT PUNC
-0.243038	VBN DT NN
-0.544068	VBN DT NNS
-1.263241	VBP DT CC
-1.263241	VBP DT IN
-0.1275788	VBP DT NN
-1.480291	VBP DT NNS
-1.439333	VBP DT PUNC
-0.1249387	PUNC FW PUNC
-0.968483	<s> IN DT
-1.491362	<s> IN JJ
-0.1051601	<s> IN NN
-1.491362	<s> IN NNP
-1.667453	<s> IN NNS
-1.499949	CC IN CC
-1.708225	CC IN CD
-1.479745	CC IN DT
-2.521138	CC IN IN
-1.009255	CC IN JJ
-0.2093842	CC IN NN
-1.265866	CC IN NNP
-1.345047	CC IN NNS
-2.345047	CC IN NO_FUNC
-1.1887	CC IN PRP
-1.919078	CC IN RB
-2.521138	CC IN RP
-1.919078	CC IN WP
-1.59384	CD IN CC
-0.905865	CD IN CD
-2.603211	CD IN JJ
-0.1915783	CD IN NN
-0.905865	CD IN NNP
-1.49693	CD IN NNS
-2.1959	CD IN NO_FUNC
-2.236858	CD IN PRP
-1.124939	DT IN CC
-1.30103	DT IN JJ
-0.1249387	DT IN NN
-1.124939	DT IN NNS
-1.385036	IN IN CD
-0.1995724	IN IN NN
-1.695832	JJ IN CC
-1.51974	JJ IN CD
-1.776754	JJ IN DT
-3.394802	JJ IN IN
-1.832509	JJ IN JJ
-0.1856891	JJ IN NN
-0.8403126	JJ IN NNP
-1.08199	JJ IN NNS
-2.616651	JJ IN NO_FUNC
-1.642753	JJ IN PRP
-2.21871	JJ IN PUNC
-2.519741	JJ IN RB
-3.394802	JJ IN RP
-3.21871	JJ IN VBP
-2.519741	JJ IN WP
-1.843179	NN IN CC
-1.747343	NN IN CD
-1.734631	NN IN DT
-3.491593	NN IN IN
-1.87085	NN IN JJ
-0.1677853	NN IN NN
-0.9468433	NN IN NNP
-3.274543	NN IN NNPS
-1.068617	NN IN NNS
-2.496392	NN IN NO_FUNC
-1.43991	NN IN PRP
-2.035661	NN IN PUNC
-2.710271	NN IN RB
-3.450634	NN IN VBP
-2.274543	NN IN WP
-1.499441	NNP IN CC
-1.304326	NNP IN CD
-2.024486	NNP IN DT
-1.757314	NNP IN JJ
-0.1772216	NNP IN NN
-0.8109679	NNP IN NNP
-1.304326	NNP IN NNS
-3.065444	NNP IN NO_FUNC
-2.211572	NNP IN PRP
-2.121396	NNP IN PUNC
-2.848394	NNP IN RB
-2.325516	NNP IN WP
-0.1760913	NNPS IN NN
-1.757396	NNS IN CC
-1.819544	NNS IN CD
-1.632457	NNS IN DT
-1.979245	NNS IN JJ
-0.1845244	NNS IN NN
-0.9081814	NNS IN NNP
-0.9744459	NNS IN NNS
-2.456366	NNS IN NO_FUNC
-1.471089	NNS IN PRP
-2.155336	NNS IN PUNC
-2.456366	NNS IN WP
-1.620656	NO_FUNC IN CC
-1.444565	NO_FUNC IN CD
-1.921687	NO_FUNC IN DT
-0.1773935	NO_FUNC IN NN
-1.018597	NO_FUNC IN NNP
-1.319626	NO_FUNC IN NNS
-0.9439629	NO_FUNC IN PRP
-1.536558	PRP IN CC
-1.39043	PRP IN CD
-1.633469	PRP IN DT
-1.433896	PRP IN JJ
-0.1786236	PRP IN NN
-1.099866	PRP IN NNP
-1.235528	PRP IN NNS
-1.41162	PRP IN PRP
-2.11059	PRP IN PUNC
-2.11059	PRP IN RB
-2.11059	PRP IN WP
-1.637126	PRPS IN CC
-1.247155	PRPS IN CD
-1.865605	PRPS IN DT
-1.803457	PRPS IN JJ
-0.197793	PRPS IN NN
-0.8524436	PRPS IN NNP
-1.110317	PRPS IN NNS
-1.637126	PRPS IN PRP
-2.377488	PRPS IN PUNC
-2.678518	PRPS IN RB
-3.08583	PRPS IN WP
-1.488286	PUNC IN CC
-1.531038	PUNC IN CD
-1.879493	PUNC IN DT
-2.391376	PUNC IN IN
-1.474922	PUNC IN JJ
-0.1765324	PUNC IN NN
-1.154587	PUNC IN NNP
-1.142178	PUNC IN NNS
-2.391376	PUNC IN NO_FUNC
-1.474922	PUNC IN PRP
-2.215285	PUNC IN PUNC
-2.692406	PUNC IN RB
-1.516315	PUNC IN WP
-1.941326	RB IN CC
-1.724276	RB IN CD
-1.900367	RB IN DT
-0.1639706	RB IN NN
-0.7700334	RB IN NNP
-1.247155	RB IN NNS
-1.724276	RB IN PUNC
-1.633469	RP IN DT
-1.633469	RP IN JJ
-0.2021047	RP IN NN
-1.332438	RP IN NNP
-1.674427	RP IN NNS
-0.6792259	RP IN PRP
-0.4388986	UH IN NN
-1.515466	VBD IN CC
-1.42529	VBD IN CD
-1.805501	VBD IN DT
-1.504471	VBD IN JJ
-0.2504064	VBD IN NN
-1.069104	VBD IN NNP
-1.314139	VBD IN NNS
-2.62941	VBD IN NO_FUNC
-0.780195	VBD IN PRP
-2.02735	VBD IN PUNC
-2.203441	VBD IN RB
-2.805501	VBD IN RP
-2.504471	VBD IN WP
-1.147196	VBN IN CC
-1.229383	VBN IN CD
-1.706504	VBN IN DT
-1.831443	VBN IN JJ
-0.2978405	VBN IN NN
-0.9106244	VBN IN NNP
-1.287375	VBN IN NNS
-2.308564	VBN IN NO_FUNC
-0.893591	VBN IN PRP
-2.308564	VBN IN PUNC
-2.132473	VBN IN RB
-2.007535	VBN IN WP
-1.544068	VBP IN CC
-1.781429	VBP IN CD
-1.605338	VBP IN DT
-1.781429	VBP IN JJ
-0.2110983	VBP IN NN
-1.160064	VBP IN NNP
-1.204774	VBP IN NNS
-0.8709986	VBP IN PRP
-1.725912	VBP IN PUNC
-2.64673	VBP IN RB
-2.04467	VBP IN WP
-0.6879746	WP IN CD
-1.113943	WP IN DT
-1.697346	WP IN NN
-0.312311	WP IN PRP
-0.8541567	CC JJ CC
-0.4605095	CC JJ IN
-1.192328	CC JJ JJ
-1.134336	CC JJ NN
-1.241547	CC JJ NNP
-1.736397	CC JJ NNS
-2.338456	CC JJ NO_FUNC
-1.861335	CC JJ PRP
-2.162365	CC JJ PRPS
-0.7761636	CC JJ PUNC
-2.037426	CC JJ RB
-2.338456	CC JJ RP
-1.463395	CC JJ VBD
-1.639486	CC JJ VBP
-1.525543	CC JJ WP
-0.7781513	CD JJ CC
-0.3802112	CD JJ IN
-1.30103	CD JJ JJ
-1.176091	CD JJ NN
-0.6642079	CD JJ PUNC
-1.30103	CD JJ WP
-0.9440486	DT JJ IN
-0.7269987	DT JJ JJ
-0.90309	DT JJ NN
-0.60206	DT JJ PUNC
-0.7042989	IN JJ CC
-2.311754	IN JJ CD
-2.311754	IN JJ DT
-0.5999466	IN JJ IN
-1.165626	IN JJ JJ
-0.6260121	IN JJ NN
-1.571391	IN JJ NNP
-1	IN JJ NNS
-2.352712	IN JJ PRPS
-1.165626	IN JJ PUNC
-2.135663	IN JJ RP
-2.135663	IN JJ WP
-0.9545421	JJ JJ CC
-2.559308	JJ JJ CD
-0.4194289	JJ JJ IN
-1.144335	JJ JJ JJ
-1.00908	JJ JJ NN
-1.179097	JJ JJ NNP
-2.860338	JJ JJ NNPS
-2.119975	JJ JJ NNS
-2.559308	JJ JJ NO_FUNC
-2.684247	JJ JJ PRP
-0.7847911	JJ JJ PUNC
-3.26765	JJ JJ RB
-1.985277	JJ JJ RP
-1.570303	JJ JJ VBD
-1.71421	JJ JJ VBP
-1.538119	JJ JJ WP
-1.007514	NN JJ CC
-2.411022	NN JJ CD
-2.756256	NN JJ DT
-0.4678148	NN JJ IN
-0.9362419	NN JJ JJ
-1.141208	NN JJ NN
-1.112803	NN JJ NNP
-2.300324	NN JJ NNS
-2.559961	NN JJ NO_FUNC
-2.62363	NN JJ PRP
-3.300324	NN JJ PRPS
-0.7286149	NN JJ PUNC
-2.258931	NN JJ RB
-2.010289	NN JJ RP
-1.605718	NN JJ VBD
-2.358316	NN JJ VBN
-1.674497	NN JJ VBP
-1.565924	NN JJ WP
-0.8651652	NNP JJ CC
-1.796084	NNP JJ CD
-0.525474	NNP JJ IN
-1.039762	NNP JJ JJ
-0.9812103	NNP JJ NN
-1.579375	NNP JJ NNP
-1.985141	NNP JJ NNS
-2.549412	NNP JJ PRP
-0.6115599	NNP JJ PUNC
-2.072291	NNP JJ RB
-1.91259	NNP JJ RP
-1.664805	NNP JJ VBD
-2.725503	NNP JJ VBN
-2.248382	NNP JJ VBP
-1.725503	NNP JJ WP
-0.8499433	NNS JJ CC
-2.653855	NNS JJ CD
-3.237259	NNS JJ DT
-0.4616598	NNS JJ IN
-0.90309	NNS JJ JJ
-1.255915	NNS JJ NN
-1.788554	NNS JJ NNP
-1.984849	NNS JJ NNS
-2.653855	NNS JJ PRP
-0.7507654	NNS JJ PUNC
-2.653855	NNS JJ RB
-2.051795	NNS JJ RP
-1.440781	NNS JJ VBD
-3.237259	NNS JJ VBN
-1.599498	NNS JJ VBP
-1.398583	NNS JJ WP
-0.6901961	NO_FUNC JJ CC
-0.4114425	NO_FUNC JJ IN
-1.389166	NO_FUNC JJ JJ
-1.213075	NO_FUNC JJ NN
-1.389166	NO_FUNC JJ NNP
-0.7871061	NO_FUNC JJ PUNC
-1.389166	NO_FUNC JJ VBP
-0.9569151	PRP JJ CC
-0.331374	PRP JJ IN
-1.098244	PRP JJ JJ
-0.7650295	PRP JJ NN
-1.911158	PRP JJ NNS
-1.911158	PRP JJ NO_FUNC
-1.133006	PRP JJ PUNC
-1.911158	PRP JJ RB
-1.911158	PRP JJ RP
-1.610128	PRP JJ WP
-0.9073271	PRPS JJ CC
-1.711807	PRPS JJ CD
-2.137776	PRPS JJ DT
-0.4273765	PRPS JJ IN
-1.199924	PRPS JJ JJ
-1.152499	PRPS JJ NN
-1.070829	PRPS JJ NNP
-2.313867	PRPS JJ NNS
-0.739836	PRPS JJ PUNC
-2.313867	PRPS JJ RB
-2.721179	PRPS JJ RP
-1.660655	PRPS JJ VBD
-2.313867	PRPS JJ VBP
-1.836746	PRPS JJ WP
-0.8666377	PUNC JJ CC
-2.160368	PUNC JJ CD
-0.4852014	PUNC JJ IN
-1.106011	PUNC JJ JJ
-0.9214864	PUNC JJ NN
-1.63749	PUNC JJ NNP
-2.743772	PUNC JJ NNS
-0.604066	PUNC JJ PUNC
-2.33646	PUNC JJ RB
-2.33646	PUNC JJ RP
-2.160368	PUNC JJ VBD
-2.160368	PUNC JJ VBN
-1.7344	PUNC JJ WP
-0.845098	RB JJ CC
-0.243038	RB JJ IN
-0.845098	RB JJ NNS
-0.7781513	RP JJ CC
-0.4057654	RP JJ IN
-2.030561	RP JJ NN
-0.5625514	RP JJ PUNC
-1.623249	RP JJ RB
-1.623249	RP JJ WP
-1.055951	VBD JJ CC
-0.3357921	VBD JJ IN
-1.218679	VBD JJ JJ
-0.6802878	VBD JJ NN
-1.356981	VBD JJ NNP
-1.218679	VBD JJ NNS
-1.218679	VBD JJ PUNC
-1.959041	VBD JJ RB
-1.060698	VBN JJ CC
-0.30103	VBN JJ IN
-0.8846066	VBN JJ NN
-1.060698	VBN JJ NNS
-1.060698	VBN JJ PUNC
-1.361728	VBN JJ RP
-1.198657	VBP JJ CC
-0.2743778	VBP JJ IN
-1.596597	VBP JJ JJ
-0.6423546	VBP JJ NN
-1.897627	VBP JJ NNP
-1.721536	VBP JJ NNS
-0.9945371	VBP JJ PUNC
-1.352713	<s> NN IN
-1.352713	<s> NN JJ
-0.4988405	<s> NN NN
-1.135663	<s> NN NNP
-0.5713912	<s> NN PUNC
-1.294596	CC NN CC
-2.649984	CC NN CD
-2.172862	CC NN DT
-0.9312052	CC NN IN
-0.6399664	CC NN JJ
-0.6274177	CC NN NN
-0.9825306	CC NN NNP
-1.334713	CC NN NNS
-2.282007	CC NN NO_FUNC
-2.252043	CC NN PRP
-1.133669	CC NN PRPS
-1.324331	CC NN PUNC
-3.127105	CC NN RB
-1.996771	CC NN RP
-1.649984	CC NN VBD
-2.348953	CC NN VBN
-1.615221	CC NN VBP
-1.859933	CC NN WP
-1.256063	CD NN CC
-1.028556	CD NN CD
-0.6834579	CD NN IN
-1.007969	CD NN JJ
-0.5880743	CD NN NN
-2.740363	CD NN NNP
-2.564271	CD NN NNS
-2.08715	CD NN NO_FUNC
-2.781321	CD NN PRP
-0.6197888	CD NN PUNC
-3.147675	CD NN RB
-2.740363	CD NN RP
-2.041393	CD NN VBD
-2.564271	CD NN VBN
-2.041393	CD NN VBP
-0.9816964	DT NN CC
-2.303916	DT NN CD
-0.70549	DT NN IN
-0.8079091	DT NN JJ
-1.108939	DT NN NN
-2.303916	DT NN NNP
-2.303916	DT NN NNS
-2.480007	DT NN NO_FUNC
-2.002886	DT NN PRP
-2.520966	DT NN PRPS
-0.6318178	DT NN PUNC
-2.303916	DT NN RB
-1.550588	DT NN RP
-1.318639	DT NN VBD
-2.002886	DT NN VBN
-1.249558	DT NN VBP
-1.333879	DT NN WP
-1.437861	IN NN CC
-1.669288	IN NN CD
-2.172927	IN NN DT
-0.9676024	IN NN IN
-0.7121963	IN NN JJ
-0.5169355	IN NN NN
-1.043667	IN NN NNP
-1.302393	IN NN NNS
-2.493701	IN NN NO_FUNC
-3.047988	IN NN PRP
-1.096975	IN NN PRPS
-1.201858	IN NN PUNC
-2.635808	IN NN RB
-2.334778	IN NN RP
-1.896721	IN NN VBD
-2.570867	IN NN VBN
-2.252108	IN NN VBP
-1.843868	IN NN WP
-1.352709	JJ NN CC
-1.587921	JJ NN CD
-2.491011	JJ NN DT
-0.6262037	JJ NN IN
-0.925754	JJ NN JJ
-0.5225284	JJ NN NN
-1.200977	JJ NN NNP
-1.661708	JJ NN NNS
-2.833	JJ NN NO_FUNC
-1.163652	JJ NN PRPS
-1.168792	JJ NN PUNC
-2.31492	JJ NN RB
-2.833	JJ NN RP
-1.91698	JJ NN VBD
-2.792041	JJ NN VBN
-2.01389	JJ NN VBP
-1.862622	JJ NN WP
-1.181731	NN NN CC
-2.206302	NN NN CD
-2.476074	NN NN DT
-0.7804955	NN NN IN
-0.6386263	NN NN JJ
-0.7056316	NN NN NN
-1.239285	NN NN NNP
-1.646771	NN NN NNS
-2.500898	NN NN NO_FUNC
-2.990984	NN NN PRP
-1.29439	NN NN PRPS
-0.8185937	NN NN PUNC
-2.527227	NN NN RB
-2.233037	NN NN RP
-2.028056	NN NN VBD
-2.360279	NN NN VBN
-2.13475	NN NN VBP
-1.820189	NN NN WP
-1.598426	NNP NN CC
-1.357692	NNP NN CD
-0.7793695	NNP NN IN
-0.8536982	NNP NN JJ
-0.4201951	NNP NN NN
-1.100371	NNP NN NNP
-1.668062	NNP NN NNS
-2.251638	NNP NN NO_FUNC
-1.132162	NNP NN PRPS
-1.417006	NNP NN PUNC
-3.136071	NNP NN RB
-2.72876	NNP NN RP
-2.769718	NNP NN VBD
-2.769718	NNP NN VBP
-2.126699	NNP NN WP
-1.086243	NNS NN CC
-2.611501	NNS NN CD
-2.611501	NNS NN DT
-0.7746629	NNS NN IN
-0.6115016	NNS NN JJ
-0.6187199	NNS NN NN
-1.21836	NNS NN NNP
-2.977855	NNS NN NNS
-2.269513	NNS NN NO_FUNC
-1.52915	NNS NN PRPS
-1.039064	NNS NN PUNC
-2.269513	NNS NN RP
-1.792392	NNS NN VBD
-2.394452	NNS NN VBN
-1.968483	NNS NN VBP
-1.75763	NNS NN WP
-1.066947	NO_FUNC NN CC
-1.669007	NO_FUNC NN CD
-0.9156791	NO_FUNC NN IN
-0.7311547	NO_FUNC NN JJ
-0.6146491	NO_FUNC NN NN
-1	NO_FUNC NN NNP
-1.243038	NO_FUNC NN NNS
-1.845098	NO_FUNC NN NO_FUNC
-1.104735	NO_FUNC NN PRPS
-1.243038	NO_FUNC NN PUNC
-1.845098	NO_FUNC NN WP
-1.306859	PRP NN CC
-2.09691	PRP NN CD
-2.39794	PRP NN DT
-0.8707399	PRP NN IN
-0.554915	PRP NN JJ
-0.6149899	PRP NN NN
-1.167491	PRP NN NNP
-1.49485	PRP NN NNS
-2.39794	PRP NN NO_FUNC
-1.262277	PRP NN PRPS
-1.184865	PRP NN PUNC
-2.39794	PRP NN RB
-1.920819	PRP NN RP
-2.273001	PRP NN VBD
-2.574031	PRP NN VBN
-1.69897	PRP NN VBP
-1.875061	PRP NN WP
-1.436163	PRPS NN CC
-1.322219	PRPS NN CD
-0.6368221	PRPS NN IN
-0.856379	PRPS NN JJ
-0.5385355	PRPS NN NN
-1.290035	PRPS NN NNP
-1.356981	PRPS NN NNS
-1.232043	PRPS NN PRPS
-1.290035	PRPS NN PUNC
-2.135133	PRPS NN RB
-1.959041	PRPS NN RP
-1.834103	PRPS NN VBP
-1.834103	PRPS NN WP
-1.638595	PUNC NN CC
-2.356451	PUNC NN CD
-3.050622	PUNC NN DT
-1.123173	PUNC NN IN
-0.8682135	PUNC NN JJ
-0.3146197	PUNC NN NN
-1.177154	PUNC NN NNP
-1.687444	PUNC NN NNS
-2.532542	PUNC NN NO_FUNC
-2.833572	PUNC NN PRP
-1.833572	PUNC NN PRPS
-0.8666485	PUNC NN PUNC
-3.416975	PUNC NN RB
-2.19675	PUNC NN RP
-2.532542	PUNC NN VBD
-1.948965	PUNC NN VBP
-2.080244	PUNC NN WP
-1.088602	RB NN CC
-2.066326	RB NN CD
-0.547812	RB NN IN
-1.005628	RB NN JJ
-0.6349621	RB NN NN
-1.325963	RB NN NNP
-1.589205	RB NN NNS
-2.066326	RB NN PRP
-2.107285	RB NN PRPS
-0.8759942	RB NN PUNC
-2.066326	RB NN VBD
-2.473638	RB NN VBP
-2.066326	RB NN WP
-0.9700368	RP NN CC
-0.4329176	RP NN IN
-0.8828866	RP NN JJ
-0.7781513	RP NN NN
-1.447158	RP NN NNS
-0.9242793	RP NN PUNC
-1.447158	RP NN RB
-0.1760913	UH NN NN
-1.292731	VBD NN CC
-3.545141	VBD NN CD
-2.660707	VBD NN DT
-0.8324773	VBD NN IN
-0.5906695	VBD NN JJ
-0.5218786	VBD NN NN
-1.037458	VBD NN NNP
-1.569627	VBD NN NNS
-2.535769	VBD NN NO_FUNC
-1.30532	VBD NN PRPS
-1.401432	VBD NN PUNC
-2.292731	VBD NN RB
-2.535769	VBD NN RP
-2.292731	VBD NN VBD
-2.324915	VBD NN VBP
-1.961737	VBD NN WP
-1.39794	VBN NN CC
-2.09691	VBN NN CD
-0.6420652	VBN NN IN
-0.8416375	VBN NN JJ
-0.49485	VBN NN NN
-1.356547	VBN NN NNP
-1.19382	VBN NN NNS
-0.9829667	VBN NN PRPS
-2.137869	VBN NN PUNC
-2.137869	VBN NN WP
-1.405627	VBP NN CC
-3.260097	VBP NN CD
-2.007687	VBP NN DT
-0.7405151	VBP NN IN
-0.6974488	VBP NN JJ
-0.5751756	VBP NN NN
-1.340901	VBP NN NNP
-1.340901	VBP NN NNS
-2.199572	VBP NN NO_FUNC
-0.9058416	VBP NN PRPS
-1.340901	VBP NN PUNC
-2.250725	VBP NN RB
-2.375664	VBP NN RP
-2.551755	VBP NN VBD
-2.551755	VBP NN VBP
-1.831596	VBP NN WP
-0.09691001	WP NN PRPS
-0.1227442	<s> NNP CD
-1.274158	<s> NNP NNP
-0.7213159	<s> NNP PUNC
-0.7076827	CC NNP CC
-1.949765	CC NNP CD
-1.006804	CC NNP IN
-1.206376	CC NNP JJ
-1.741489	CC NNP NN
-0.5258895	CC NNP NNP
-2.461648	CC NNP NNS
-2.285557	CC NNP NO_FUNC
-2.063709	CC NNP PRP
-0.7965368	CC NNP PUNC
-2.803637	CC NNP RB
-1.741489	CC NNP RP
-1.2312	CC NNP VBD
-1.373513	CC NNP VBP
-1.808436	CC NNP WP
-1.273001	CD NNP JJ
-1.574031	CD NNP NNP
-0.03937069	CD NNP PUNC
-0.767995	IN NNP CC
-1.709739	IN NNP CD
-2.904716	IN NNP DT
-0.724781	IN NNP IN
-1.223474	IN NNP JJ
-1.091802	IN NNP NN
-0.8365297	IN NNP NNP
-2.427594	IN NNP NNS
-2.779777	IN NNP NO_FUNC
-3.121765	IN NNP PRP
-0.5776974	IN NNP PUNC
-3.488119	IN NNP RB
-2.302655	IN NNP RP
-1.779777	IN NNP VBD
-2.478747	IN NNP VBN
-1.825534	IN NNP VBP
-1.719079	IN NNP WP
-1.728861	JJ NNP CC
-2.45586	JJ NNP CD
-1.571253	JJ NNP IN
-2.029891	JJ NNP JJ
-2.672909	JJ NNP NN
-0.04818546	JJ NNP NNP
-1.441619	JJ NNP PUNC
-2.330921	JJ NNP WP
-1.10206	NN NNP CC
-2.045022	NN NNP CD
-3.199924	NN NNP DT
-0.814573	NN NNP IN
-0.9672348	NN NNP JJ
-1.399297	NN NNP NN
-0.409229	NN NNP NNP
-3.199924	NN NNP NNS
-3.566277	NN NNP NO_FUNC
-2.857935	NN NNP PRP
-0.7991298	NN NNP PUNC
-3.199924	NN NNP RB
-2.418602	NN NNP RP
-1.719633	NN NNP VBD
-3.199924	NN NNP VBN
-2.012837	NN NNP VBP
-1.735719	NN NNP WP
-0.845432	NNP NNP CC
-1.418101	NNP NNP CD
-0.821172	NNP NNP IN
-1.264951	NNP NNP JJ
-0.9182664	NNP NNP NN
-0.7905702	NNP NNP NNP
-2.445159	NNP NNP NNS
-2.549895	NNP NNP NO_FUNC
-0.6317689	NNP NNP PUNC
-2.477344	NNP NNP RB
-2.415196	NNP NNP RP
-1.487484	NNP NNP VBD
-3.331216	NNP NNP VBN
-1.791947	NNP NNP VBP
-1.477344	NNP NNP WP
-0.6368221	NNS NNP CC
-2.334169	NNS NNP CD
-0.9974378	NNS NNP IN
-1.148705	NNS NNP JJ
-1.081759	NNS NNP NN
-0.7507654	NNS NNP NNP
-0.6258267	NNS NNP PUNC
-1.750765	NNS NNP VBD
-1.926857	NNS NNP VBP
-1.750765	NNS NNP WP
-1.202327	NO_FUNC NNP CC
-0.860338	NO_FUNC NNP IN
-0.31627	NO_FUNC NNP NNP
-0.9852768	NO_FUNC NNP PUNC
-0.8255759	PRP NNP CC
-0.4412087	PRP NNP IN
-1.337459	PRP NNP JJ
-1.240549	PRP NNP NN
-0.6173	PRP NNP NNP
-1.939519	PRP NNP NO_FUNC
-0.9395192	PRP NNP PUNC
-1.214181	PRPS NNP CC
-1.03809	PRPS NNP CD
-0.8162413	PRPS NNP IN
-1.214181	PRPS NNP JJ
-1.163029	PRPS NNP NN
-0.3043579	PRPS NNP NNP
-1.8572	PRPS NNP PUNC
-1.64015	PRPS NNP WP
-1.494226	PUNC NNP CC
-1.094064	PUNC NNP CD
-1.171477	PUNC NNP IN
-0.7311822	PUNC NNP JJ
-1.505507	PUNC NNP NN
-0.7428679	PUNC NNP NNP
-2.608169	PUNC NNP NNS
-0.4131927	PUNC NNP PUNC
-1.971347	PUNC NNP VBD
-2.784261	PUNC NNP VBN
-1.742868	PUNC NNP VBP
-1.310402	RB NNP CC
-0.90309	RB NNP IN
-0.4259687	RB NNP NNP
-1.013926	VBD NNP CC
-2.060225	VBD NNP CD
-2.662286	VBD NNP DT
-0.6130675	VBD NNP IN
-1.383532	VBD NNP JJ
-0.8171875	VBD NNP NN
-0.6308771	VBD NNP NNP
-2.060225	VBD NNP NNS
-2.361255	VBD NNP NO_FUNC
-1.009073	VBD NNP PUNC
-2.703244	VBD NNP RB
-1.255745	VBD NNP VBD
-2.486194	VBD NNP VBN
-1.849372	VBD NNP VBP
-1.516158	VBD NNP WP
-0.9703775	VBN NNP IN
-0.7533277	VBN NNP NN
-0.9703775	VBN NNP NNP
-0.8758877	VBP NNP CC
-2.118926	VBP NNP CD
-0.5448945	VBP NNP IN
-1.273828	VBP NNP JJ
-0.7478579	VBP NNP NN
-0.7478579	VBP NNP NNP
-2.526238	VBP NNP NNS
-1.058228	VBP NNP PUNC
-1.942834	VBP NNP RB
-1.942834	VBP NNP VBP
-2.159884	VBP NNP WP
-0.30103	IN NNPS IN
-0.1760913	JJ NNPS NO_FUNC
-0.03778856	<s> NNS PUNC
-1.027773	CC NNS CC
-0.8489584	CC NNS IN
-0.5876956	CC NNS JJ
-0.9007901	CC NNS NN
-1.60592	CC NNS NNP
-1.672867	CC NNS NNS
-2.491977	CC NNS NO_FUNC
-1.337075	CC NNS PRPS
-1.089291	CC NNS PUNC
-2.274927	CC NNS RB
-1.710656	CC NNS RP
-1.183847	CC NNS VBD
-1.973897	CC NNS VBN
-1.246898	CC NNS VBP
-1.409626	CC NNS WP
-0.8239087	CD NNS CC
-0.4881167	CD NNS IN
-1.124939	CD NNS JJ
-0.5606673	CD NNS NN
-1.341989	CD NNS PUNC
-1.0463	DT NNS CC
-0.64836	DT NNS IN
-0.9079973	DT NNS JJ
-1.689319	DT NNS NN
-0.6069673	DT NNS PUNC
-2.055672	DT NNS RP
-1.472269	DT NNS VBN
-1.171239	DT NNS VBP
-1.171239	DT NNS WP
-1.058241	IN NNS CC
-2.134119	IN NNS CD
-2.221269	IN NNS DT
-0.8291588	IN NNS IN
-0.5380221	IN NNS JJ
-0.6969453	IN NNS NN
-1.443118	IN NNS NNP
-1.795301	IN NNS NNS
-2.573452	IN NNS NO_FUNC
-1.397361	IN NNS PRPS
-0.9908204	IN NNS PUNC
-2.397361	IN NNS RB
-3.281794	IN NNS RP
-1.795301	IN NNS VBD
-2.397361	IN NNS VBN
-1.971392	IN NNS VBP
-1.631444	IN NNS WP
-1.151732	JJ NNS CC
-0.5596561	JJ NNS IN
-0.7617608	JJ NNS JJ
-0.8313968	JJ NNS NN
-1.933053	JJ NNS NNS
-1.892095	JJ NNS PRP
-1.017033	JJ NNS PRPS
-0.9890046	JJ NNS PUNC
-1.591065	JJ NNS VBP
-1.716003	JJ NNS WP
-1.161529	NN NNS CC
-2.828982	NN NNS CD
-2.828982	NN NNS DT
-0.6646291	NN NNS IN
-0.5151147	NN NNS JJ
-0.8628402	NN NNS NN
-1.56181	NN NNS NNP
-1.787589	NN NNS NNS
-2.351861	NN NNS NO_FUNC
-2.652891	NN NNS PRP
-1.291163	NN NNS PRPS
-1.050831	NN NNS PUNC
-2.869941	NN NNS RB
-3.236294	NN NNS RP
-1.953921	NN NNS VBD
-1.925892	NN NNS VBN
-1.953921	NN NNS VBP
-1.448771	NN NNS WP
-1.39794	NNP NNS CC
-0.6197888	NNP NNS IN
-0.6197888	NNP NNS JJ
-0.6575773	NNP NNS NN
-1.39794	NNP NNS NNS
-0.9208187	NNP NNS PRPS
-1.39794	NNP NNS PUNC
-0.9951475	NNS NNS CC
-1.34733	NNS NNS CD
-0.94939	NNS NNS IN
-0.55145	NNS NNS JJ
-2.055672	NNS NNS NN
-1.171239	NNS NNS NNP
-1.64836	NNS NNS NO_FUNC
-1.689319	NNS NNS PRPS
-0.94939	NNS NNS PUNC
-1.64836	NNS NNS VBN
-1.34733	NNS NNS VBP
-1.64836	NNS NNS WP
-1.220225	NO_FUNC NNS JJ
-1.126294	PRP NNS CC
-0.6676559	PRP NNS IN
-0.4061345	PRP NNS JJ
-0.7506302	PRP NNS NN
-1.728354	PRP NNS NNP
-1.728354	PRP NNS NNS
-1.728354	PRP NNS NO_FUNC
-1.251233	PRP NNS PUNC
-0.559308	PRPS NNS IN
-0.462398	PRPS NNS JJ
-0.9852768	PRPS NNS NN
-0.9852768	PRPS NNS NNP
-0.9852768	PRPS NNS PUNC
-1.763428	PUNC NNS CC
-1.980478	PUNC NNS IN
-0.4771213	PUNC NNS JJ
-1.240549	PUNC NNS NN
-0.91833	PUNC NNS NNP
-2.346831	PUNC NNS NNS
-1.980478	PUNC NNS PRPS
-0.5777914	PUNC NNS PUNC
-1.939519	PUNC NNS RP
-1.638489	PUNC NNS VBD
-1.286307	PUNC NNS VBP
-1.939519	PUNC NNS WP
-1.021189	RB NNS CC
-1.062148	RB NNS IN
-0.3679768	RB NNS JJ
-1.021189	RB NNS NN
-1.021189	RB NNS VBD
-0.1760913	RP NNS JJ
-1.565257	VBD NNS CC
-0.617089	VBD NNS IN
-0.5141048	VBD NNS JJ
-0.7693774	VBD NNS NN
-1.264227	VBD NNS NNP
-1.426955	VBD NNS NNS
-1.389166	VBD NNS PRPS
-2.574629	VBD NNS PUNC
-1.389166	VBD NNS VBD
-2.208276	VBD NNS VBP
-1.565257	VBD NNS WP
-1.190332	VBN NNS CC
-1.190332	VBN NNS CD
-1.23129	VBN NNS IN
-0.4913617	VBN NNS JJ
-1.597644	VBN NNS NN
-1.056481	VBP NNS CC
-1.834633	VBP NNS CD
-0.6305126	VBP NNS IN
-0.6041837	VBP NNS JJ
-0.7319703	VBP NNS NN
-1.311754	VBP NNS NNP
-1.834633	VBP NNS NNS
-1.232573	VBP NNS PRPS
-1.357511	VBP NNS PUNC
-2.010724	VBP NNS VBP
-2.418036	VBP NNS WP
-1.171292	<s> NO_FUNC CC
-0.9542425	<s> NO_FUNC IN
-0.3899711	<s> NO_FUNC NN
-0.6532125	<s> NO_FUNC NNP
-0.4357286	CC NO_FUNC IN
-1.176091	CC NO_FUNC JJ
-0.4771213	CC NO_FUNC NN
-1.176091	CC NO_FUNC NNP
-1.176091	CC NO_FUNC VBD
-0.69897	CD NO_FUNC IN
-0.69897	CD NO_FUNC NN
-0.69897	CD NO_FUNC PUNC
-1.495803	IN NO_FUNC CC
-0.8527849	IN NO_FUNC IN
-0.7558749	IN NO_FUNC JJ
-0.5797836	IN NO_FUNC NN
-1.278754	IN NO_FUNC NNP
-1.278754	IN NO_FUNC NNS
-1.495803	IN NO_FUNC PUNC
-1.278754	IN NO_FUNC VBP
-1.079181	JJ NO_FUNC CC
-0.6532125	JJ NO_FUNC IN
-1.255273	JJ NO_FUNC JJ
-0.4771213	JJ NO_FUNC NN
-1.255273	JJ NO_FUNC NNP
-0.7781513	JJ NO_FUNC PUNC
-0.9941704	NN NO_FUNC CC
-1.869232	NN NO_FUNC CD
-1.869232	NN NO_FUNC DT
-0.5170492	NN NO_FUNC IN
-0.8915081	NN NO_FUNC JJ
-0.7231037	NN NO_FUNC NN
-2.276544	NN NO_FUNC NNP
-1.869232	NN NO_FUNC NNS
-1.869232	NN NO_FUNC PRP
-1.024134	NN NO_FUNC PUNC
-1.693141	NN NO_FUNC RP
-1.693141	NN NO_FUNC VBD
-1.693141	NN NO_FUNC VBP
-1.243038	NNP NO_FUNC CC
-0.3399481	NNP NO_FUNC IN
-0.7659168	NNP NO_FUNC NN
-1.243038	NNP NO_FUNC NNP
-0.9420081	NNP NO_FUNC PUNC
-1.243038	NNP NO_FUNC VBD
-0.1760913	NNPS NO_FUNC PUNC
-0.90309	NNS NO_FUNC CC
-0.60206	NNS NO_FUNC IN
-0.90309	NNS NO_FUNC JJ
-1.12014	NNS NO_FUNC NN
-1.079181	NNS NO_FUNC NNS
-0.7781513	NNS NO_FUNC PUNC
-0.1760913	NO_FUNC NO_FUNC NN
-0.8750613	PRP NO_FUNC CC
-0.2730013	PRP NO_FUNC IN
-0.69897	PRP NO_FUNC PUNC
-0.3679768	PRPS NO_FUNC IN
-0.544068	PRPS NO_FUNC JJ
-0.552842	PUNC NO_FUNC IN
-0.9208187	PUNC NO_FUNC JJ
-0.49485	PUNC NO_FUNC NN
-1.09691	PUNC NO_FUNC NNP
-1.805252	PUNC NO_FUNC PUNC
-0.3679768	RB NO_FUNC IN
-0.2218488	RP NO_FUNC IN
-0.69897	RP NO_FUNC PUNC
-0.8750613	VBD NO_FUNC CD
-0.5740313	VBD NO_FUNC IN
-0.69897	VBD NO_FUNC JJ
-0.69897	VBD NO_FUNC NN
-0.3565473	VBP NO_FUNC IN
-0.49485	VBP NO_FUNC NN
-0.9208187	VBP NO_FUNC PUNC
-0.3716111	WP NO_FUNC IN
-0.3233064	WP NO_FUNC NN
-1.30103	WP NO_FUNC PUNC
-0.1760913	CD NUMERIC_COMMA CD
-2.014416	CC PRP CC
-2.616476	CC PRP CD
-1.042444	CC PRP IN
-1.091431	CC PRP JJ
-0.8921996	CC PRP NN
-2.315445	CC PRP NNP
-2.440384	CC PRP NNS
-3.023787	CC PRP NO_FUNC
-1.048274	CC PRP PUNC
-2.315445	CC PRP RB
-0.9089053	CC PRP RP
-0.7216058	CC PRP VBD
-1.687057	CC PRP VBN
-0.6252494	CC PRP VBP
-2.315445	CC PRP WP
-0.1249387	DT PRP NN
-1.083627	IN PRP CC
-1.51499	IN PRP CD
-2.21396	IN PRP DT
-0.6011764	IN PRP IN
-1.649689	IN PRP JJ
-0.502153	IN PRP NN
-1.228683	IN PRP NNP
-1.284541	IN PRP NNS
-2.73204	IN PRP NO_FUNC
-2.691082	IN PRP PRP
-0.8522324	IN PRP PUNC
-2.73204	IN PRP RB
-2.73204	IN PRP RP
-2.21396	IN PRP VBD
-2.21396	IN PRP VBP
-1.950719	IN PRP WP
-1.102662	JJ PRP CC
-1.278754	JJ PRP IN
-0.8016323	JJ PRP JJ
-0.3493347	JJ PRP NN
-1.319712	JJ PRP NNP
-0.9700368	NN PRP CC
-1.146128	NN PRP IN
-0.6690068	NN PRP JJ
-0.4057654	NN PRP NN
-1.271067	NN PRP NNP
-1.271067	NN PRP NNS
-1.447158	NN PRP RB
-1.447158	NN PRP WP
-0.3881802	NNP PRP JJ
-1.448705	NNP PRP NN
-1.041393	NNP PRP PUNC
-1.041393	NNP PRP RB
-0.60206	NNS PRP NN
-0.4259687	NNS PRP NNP
-0.60206	NNS PRP PUNC
-0.1760913	NO_FUNC PRP NN
-0.30103	PRPS PRP PUNC
-0.7781513	PUNC PRP IN
-0.5563025	PUNC PRP JJ
-0.5563025	PUNC PRP NN
-1.255273	PUNC PRP NNS
-1.079181	PUNC PRP PUNC
-1.255273	PUNC PRP VBP
-0.5228788	RP PRP IN
-0.5228788	RP PRP NN
-0.5228788	RP PRP PUNC
-1.60206	VBD PRP CC
-2	VBD PRP CD
-2.341989	VBD PRP DT
-0.556737	VBD PRP IN
-1.240332	VBD PRP JJ
-0.4259687	VBD PRP NN
-0.8944898	VBD PRP NNP
-1.30103	VBD PRP NNS
-2.30103	VBD PRP NO_FUNC
-1.455932	VBD PRP PUNC
-2.341989	VBD PRP RB
-2.30103	VBD PRP RP
-2.30103	VBD PRP VBP
-1.30963	VBP PRP CC
-1.883661	VBP PRP DT
-0.6728081	VBP PRP IN
-1.485721	VBP PRP JJ
-0.4522977	VBP PRP NN
-0.8136235	VBP PRP NNP
-1.087781	VBP PRP NNS
-1.255273	VBP PRP PUNC
-2.592003	VBP PRP RB
-2.184691	VBP PRP RP
-2.0086	VBP PRP VBP
-0.8129134	WP PRP JJ
-1.220225	WP PRP NN
-0.8750613	JJ PRPS CC
-0.69897	JJ PRPS JJ
-0.9160199	JJ PRPS NN
-0.8750613	JJ PRPS PUNC
-1.005152	NN PRPS CC
-1.683188	NN PRPS CD
-3.089729	NN PRPS DT
-0.4452899	NN PRPS IN
-0.8332513	NN PRPS JJ
-0.989358	NN PRPS NN
-1.286955	NN PRPS NNP
-1.959395	NN PRPS NNS
-3.497041	NN PRPS NO_FUNC
-2.788698	NN PRPS PRP
-0.8202156	NN PRPS PUNC
-2.214667	NN PRPS RB
-2.186639	NN PRPS RP
-1.846691	NN PRPS VBD
-3.130687	NN PRPS VBN
-1.928361	NN PRPS VBP
-1.913637	NN PRPS WP
-0.1760913	NNP PRPS CC
-1.049626	NNS PRPS CC
-0.4832816	NNS PRPS IN
-0.6471384	NNS PRPS JJ
-1.12426	NNS PRPS NN
-1.851258	NNS PRPS NNP
-0.7601779	NNS PRPS PUNC
-2.434661	NNS PRPS RP
-1.72632	NNS PRPS VBD
-1.72632	NNS PRPS VBP
-0.1760913	RP PRPS IN
-0.8191099	<s> PUNC CC
-0.30103	<s> PUNC VBD
-2.034762	CC PUNC </s>
-2.034762	CC PUNC CD
-1.39794	CC PUNC DT
-1.557641	CC PUNC IN
-2.034762	CC PUNC JJ
-0.2566109	CC PUNC NN
-0.8397855	CC PUNC NNP
-0.9555808	CC PUNC NNS
-2.034762	CC PUNC NO_FUNC
-2.034762	CC PUNC PUNC
-1.909823	CC PUNC RB
-2.210853	CC PUNC RP
-2.034762	CC PUNC VBN
-1.432702	CC PUNC VBP
-2.210853	CC PUNC WP
-1.21541	CD PUNC </s>
-1.07835	CD PUNC CC
-0.3329461	CD PUNC CD
-1.553484	CD PUNC IN
-2.416807	CD PUNC JJ
-0.5365651	CD PUNC NN
-1.969649	CD PUNC NNP
-2.036596	CD PUNC NNS
-2.814747	CD PUNC NO_FUNC
-3.115777	CD PUNC PRP
-1.457765	CD PUNC PUNC
-2.638656	CD PUNC RB
-3.523089	CD PUNC VBD
-2.939686	CD PUNC VBN
-2.638656	CD PUNC VBP
-3.156735	CD PUNC WP
-0.6690068	DT PUNC </s>
-1.729531	DT PUNC CC
-1.021189	DT PUNC NN
-0.5818566	DT PUNC PUNC
-0.7201593	DT PUNC VBD
-1.146128	DT PUNC VBP
-1.952116	IN PUNC CC
-0.1049776	IN PUNC NN
-0.933434	IN PUNC NNP
-1.309098	IN PUNC NNS
-0.5163205	JJ PUNC </s>
-0.8683663	JJ PUNC CC
-1.43387	JJ PUNC CD
-3.115111	JJ PUNC DT
-1.056306	JJ PUNC IN
-1.546909	JJ PUNC JJ
-1.344259	JJ PUNC NN
-1.075697	JJ PUNC NNP
-2.374748	JJ PUNC NNS
-2.416141	JJ PUNC NO_FUNC
-3.522423	JJ PUNC PRP
-0.7717025	JJ PUNC PUNC
-2.461899	JJ PUNC RB
-1.872073	JJ PUNC RP
-1.370818	JJ PUNC VBD
-3.115111	JJ PUNC VBI
-3.15607	JJ PUNC VBN
-1.623749	JJ PUNC VBP
-1.968983	JJ PUNC WP
-0.6418256	NN PUNC </s>
-0.9029752	NN PUNC CC
-1.814408	NN PUNC CD
-2.498655	NN PUNC DT
-1.140086	NN PUNC IN
-1.467247	NN PUNC JJ
-1.033768	NN PUNC NN
-1.21048	NN PUNC NNP
-2.059322	NN PUNC NNS
-2.431708	NN PUNC NO_FUNC
-3.684118	NN PUNC PRP
-0.5525305	NN PUNC PUNC
-2.577836	NN PUNC RB
-1.954587	NN PUNC RP
-1.633354	NN PUNC VBD
-3.276806	NN PUNC VBI
-2.431708	NN PUNC VBN
-1.738987	NN PUNC VBP
-1.870266	NN PUNC WP
-0.696762	NNP PUNC </s>
-0.9216034	NNP PUNC CC
-0.9057267	NNP PUNC CD
-3.23672	NNP PUNC DT
-3.195761	NNP PUNC FW
-1.218038	NNP PUNC IN
-1.459365	NNP PUNC JJ
-1.012491	NNP PUNC NN
-0.7222744	NNP PUNC NNP
-1.978277	NNP PUNC NNS
-2.542549	NNP PUNC NO_FUNC
-2.542549	NNP PUNC PRP
-1.140765	NNP PUNC PUNC
-2.542549	NNP PUNC RB
-2.034393	NNP PUNC RP
-2.894731	NNP PUNC UH
-1.572512	NNP PUNC VBD
-2.350663	NNP PUNC VBN
-1.690611	NNP PUNC VBP
-1.772515	NNP PUNC WP
-0.4128922	NNS PUNC </s>
-0.8615249	NNS PUNC CC
-2.058805	NNS PUNC CD
-1.213707	NNS PUNC IN
-1.169504	NNS PUNC JJ
-1.280654	NNS PUNC NN
-1.382112	NNS PUNC NNP
-2.400794	NNS PUNC NNS
-2.359835	NNS PUNC PRP
-0.9284717	NNS PUNC PUNC
-2.359835	NNS PUNC RB
-2.400794	NNS PUNC RP
-1.262926	NNS PUNC VBD
-2.359835	NNS PUNC VBN
-1.546922	NNS PUNC VBP
-2.183744	NNS PUNC WP
-0.566732	NO_FUNC PUNC </s>
-0.867762	NO_FUNC PUNC CC
-1.293731	NO_FUNC PUNC IN
-1.469822	NO_FUNC PUNC JJ
-0.8166095	NO_FUNC PUNC NN
-1.510781	NO_FUNC PUNC NNP
-1.877134	NO_FUNC PUNC PUNC
-1.168792	NO_FUNC PUNC RP
-1.293731	NO_FUNC PUNC VBD
-0.7040495	PRP PUNC </s>
-0.8553172	PRP PUNC CC
-0.9492217	PRP PUNC IN
-1.332438	PRP PUNC JJ
-0.8553172	PRP PUNC NN
-2.517902	PRP PUNC NNP
-1.633469	PRP PUNC NNS
-0.8205551	PRP PUNC PUNC
-2.11059	PRP PUNC RB
-1.457377	PRP PUNC RP
-1.297676	PRP PUNC VBD
-1.235528	PRP PUNC VBP
-0.4998985	PRPS PUNC </s>
-0.8978385	PRPS PUNC CC
-1.233631	PRPS PUNC IN
-2.720124	PRPS PUNC JJ
-1.271419	PRPS PUNC NN
-2.720124	PRPS PUNC NNP
-1.710752	PRPS PUNC NNS
-2.312812	PRPS PUNC PRP
-0.556937	PRPS PUNC PUNC
-2.011782	PRPS PUNC RB
-2.136721	PRPS PUNC RP
-1.233631	PRPS PUNC VBD
-2.312812	PRPS PUNC VBN
-1.613842	PRPS PUNC VBP
-0.2873287	PUNC PUNC </s>
-1.151732	PUNC PUNC CC
-2.436163	PUNC PUNC CD
-1.676495	PUNC PUNC IN
-1.771051	PUNC PUNC JJ
-1.820739	PUNC PUNC NN
-2.193125	PUNC PUNC NNP
-2.737193	PUNC PUNC NNS
-3.079181	PUNC PUNC NO_FUNC
-2.862131	PUNC PUNC PRP
-1.326415	PUNC PUNC PUNC
-2.737193	PUNC PUNC RB
-2.163161	PUNC PUNC RP
-0.5957429	PUNC PUNC VBD
-1.959041	PUNC PUNC VBN
-1.676495	PUNC PUNC VBP
-3.079181	PUNC PUNC WP
-0.4873404	RB PUNC </s>
-0.6792259	RB PUNC CC
-0.8931057	RB PUNC IN
-1.633469	RB PUNC JJ
-1.633469	RB PUNC NN
-0.980256	RB PUNC PUNC
-1.457377	RB PUNC RP
-1.674427	RB PUNC VBD
-1.457377	RB PUNC VBN
-0.544068	RP PUNC JJ
-0.544068	RP PUNC RP
-0.30103	UH PUNC PUNC
-2.077368	VBD PUNC </s>
-0.5654845	VBD PUNC CC
-1.901277	VBD PUNC DT
-0.8870362	VBD PUNC IN
-1.475308	VBD PUNC JJ
-0.9312398	VBD PUNC NN
-1.264455	VBD PUNC NNP
-2.077368	VBD PUNC NNS
-1.901277	VBD PUNC NO_FUNC
-1.776338	VBD PUNC PRP
-2.48468	VBD PUNC PUNC
-1.776338	VBD PUNC RB
-1.035975	VBD PUNC RP
-1.147949	VBD PUNC VBD
-0.9159999	VBD PUNC VBP
-0.845098	VBN PUNC </s>
-0.3679768	VBN PUNC IN
-0.544068	VBN PUNC NN
-1.358569	VBP PUNC </s>
-1.022777	VBP PUNC CC
-1.659599	VBP PUNC DT
-0.6595993	VBP PUNC IN
-2.243002	VBP PUNC JJ
-0.5239367	VBP PUNC NN
-1.182478	VBP PUNC NNP
-1.835691	VBP PUNC NNS
-1.022777	VBP PUNC PUNC
-1.534661	VBP PUNC RP
-1.659599	VBP PUNC VBD
-1.876649	VBP PUNC VBP
-0.4771213	WP PUNC CC
-0.4771213	WP PUNC VBP
-0.09691001	<s> RB CC
-1.20412	CC RB CC
-0.6922366	CC RB IN
-1.50515	CC RB JJ
-0.3290587	CC RB NN
-1.20412	CC RB NNS
-1.20412	CC RB PUNC
-1.20412	CC RB VBD
-0.3679768	CD RB IN
-0.3679768	CD RB NN
-1.51808	IN RB CC
-1.30103	IN RB CD
-0.5740313	IN RB IN
-0.7367586	IN RB NN
-1.30103	IN RB NNS
-0.6320232	IN RB PUNC
-1.30103	IN RB RP
-1.130334	JJ RB CC
-1.607455	JJ RB CD
-0.704365	JJ RB IN
-1.607455	JJ RB JJ
-0.5467572	JJ RB NN
-1.607455	JJ RB NNP
-0.6297314	JJ RB PUNC
-1.306425	JJ RB VBD
-1.100371	NN RB CC
-0.8216169	NN RB IN
-0.3760947	NN RB NN
-1.623249	NN RB NNP
-1.799341	NN RB NNS
-1.623249	NN RB NO_FUNC
-0.8216169	NN RB PUNC
-1.840299	NN RB RP
-1.498311	NN RB VBD
-1.799341	NN RB VBN
-1.623249	NN RB VBP
-1.010724	NNP RB CC
-1.719066	NNP RB IN
-0.4086639	NNP RB NN
-1.135663	NNP RB NNP
-1.719066	NNP RB PUNC
-1.311754	NNP RB VBD
-1	NNS RB CC
-1.040959	NNS RB IN
-0.8239087	NNS RB NN
-1.407312	NNS RB PUNC
-0.3521825	PRP RB IN
-1.537646	PRP RB NN
-0.9542425	PRP RB PUNC
-1.130334	PRP RB RP
-0.8750613	PRPS RB CC
-0.9160199	PRPS RB IN
-0.39794	PRPS RB NN
-1.472322	PUNC RB CC
-0.8293038	PUNC RB IN
-1.431364	PUNC RB JJ
-0.5862657	PUNC RB NN
-1.431364	PUNC RB NNS
-1.431364	PUNC RB PUNC
-0.5563025	PUNC RB VBD
-1.130334	PUNC RB VBP
-0.1249387	RB RB NN
-1.09108	RP RB CC
-0.3377528	RP RB IN
-1.267172	RP RB JJ
-0.4220737	RP RB NN
-0.5201559	VBD RB IN
-0.3440646	VBD RB NN
-1.122216	VBD RB NNP
-1.423246	VBD RB NNS
-1.247155	VBD RB NO_FUNC
-1.423246	VBD RB PUNC
-0.6368221	VBN RB IN
-0.3357921	VBN RB NN
-0.6368221	VBN RB PUNC
-0.4455223	VBP RB IN
-0.4455223	VBP RB NN
-1.464204	VBP RB NNS
-1.122216	VBP RB PUNC
-1.423246	VBP RB WP
-0.01930515	<s> RP CC
-1.952631	CC RP CC
-1.068024	CC RP IN
-2.536034	CC RP JJ
-1.128722	CC RP NN
-2.128722	CC RP NNS
-2.128722	CC RP PRP
-2.128722	CC RP PUNC
-1.107533	CC RP RB
-1.651601	CC RP VBD
-1.350571	CC RP VBN
-0.204443	CC RP VBP
-0.2218488	CD RP VBP
-0.09691001	DT RP NN
-0.3521825	IN RP JJ
-0.3521825	IN RP NN
-1.364864	JJ RP CC
-1.665894	JJ RP CD
-1.188772	JJ RP IN
-1.188772	JJ RP JJ
-1.143015	JJ RP NN
-1.841985	JJ RP NNS
-1.841985	JJ RP NO_FUNC
-1.540955	JJ RP PRP
-1.364864	JJ RP RB
-1.364864	JJ RP VBD
-1.882943	JJ RP VBN
-0.2622012	JJ RP VBP
-2.45653	NN RP CC
-2.45653	NN RP IN
-0.7820463	NN RP JJ
-1.094975	NN RP NN
-1.873127	NN RP NO_FUNC
-2.45653	NN RP RB
-2.45653	NN RP VBD
-1.396006	NN RP VBN
-0.2498775	NN RP VBP
-1.51808	NNP RP IN
-1.176091	NNP RP JJ
-1.477121	NNP RP NN
-1.477121	NNP RP VBD
-0.1346986	NNP RP VBP
-1.267172	NNS RP CC
-1.09108	NNS RP IN
-1.674484	NNS RP JJ
-1.267172	NNS RP VBD
-1.267172	NNS RP VBN
-0.2894481	NNS RP VBP
-0.544068	NO_FUNC RP NN
-1.451018	PRP RP IN
-1.752048	PRP RP JJ
-1.752048	PRP RP NN
-1.752048	PRP RP NO_FUNC
-1.451018	PRP RP VBD
-1.793007	PRP RP VBN
-0.08929062	PRP RP VBP
-0.8846066	PRPS RP IN
-0.7596679	PRPS RP JJ
-0.1856366	PRPS RP VBP
-0.9444827	PUNC RP CC
-0.9902402	PUNC RP IN
-2.351794	PUNC RP JJ
-0.9902402	PUNC RP NN
-1.768391	PUNC RP PRP
-1.768391	PUNC RP PUNC
-1.643453	PUNC RP VBD
-1.342423	PUNC RP VBN
-0.2864713	PUNC RP VBP
-1.944483	PUNC RP WP
-0.8129134	RB RP CC
-0.6368221	RB RP IN
-1.220225	RB RP VBP
-0.1760913	VBD RP VBP
-0.30103	VBN RP IN
-0.4771213	VBN RP JJ
-0.7403627	VBP RP CD
-0.5642715	VBP RP IN
-1.041393	VBP RP NN
-1.448705	VBP RP VBP
-1.130334	WP RP VBD
-0.9542425	WP RP VBN
-0.09892531	WP RP VBP
-0.1760913	CC UH IN
-0.5642715	PUNC UH IN
-0.7403627	PUNC UH NN
-0.7403627	PUNC UH PUNC
-0.7403627	PUNC UH VBP
-0.6430186	<s> VBD NN
-0.4259687	<s> VBD NNP
-1.286832	CC VBD CC
-2.3737	CC VBD CD
-2.042707	CC VBD DT
-0.9102336	CC VBD IN
-1.706915	CC VBD JJ
-0.3712253	CC VBD NN
-0.6716389	CC VBD NNP
-1.297112	CC VBD NNS
-3.62611	CC VBD NO_FUNC
-1.741677	CC VBD PRP
-1.250315	CC VBD PUNC
-2.177405	CC VBD RB
-3.218798	CC VBD RP
-2.440647	CC VBD VBD
-2.917768	CC VBD VBN
-1.84773	CC VBD VBP
-3.042707	CC VBD WP
-1.079181	CD VBD IN
-1.079181	CD VBD JJ
-0.2662679	CD VBD NN
-1.079181	CD VBD PRP
-0.90309	CD VBD PUNC
-0.60206	DT VBD JJ
-0.30103	DT VBD NN
-0.1760913	IN VBD NN
-1.5302	JJ VBD CC
-2.053078	JJ VBD CD
-0.488807	JJ VBD IN
-1.32608	JJ VBD JJ
-0.4809817	JJ VBD NN
-1.32608	JJ VBD NNP
-1.354108	JJ VBD NNS
-0.9861317	JJ VBD PRP
-2.636482	JJ VBD PUNC
-2.270128	JJ VBD RB
-1.62711	JJ VBD VBP
-1.683247	NN VBD CC
-1.7344	NN VBD CD
-2.160368	NN VBD DT
-0.4643035	NN VBD IN
-1.295067	NN VBD JJ
-0.6832472	NN VBD NN
-1.146128	NN VBD NNP
-1.382217	NN VBD NNS
-2.33646	NN VBD NO_FUNC
-0.7923917	NN VBD PRP
-1.596097	NN VBD PUNC
-2.377418	NN VBD RB
-2.377418	NN VBD VBD
-1.683247	NN VBD VBP
-1.352183	NNP VBD CC
-2.079181	NNP VBD CD
-1.954242	NNP VBD DT
-0.4956047	NNP VBD IN
-1.60206	NNP VBD JJ
-0.4164234	NNP VBD NN
-1.21388	NNP VBD NNP
-1.352183	NNP VBD NNS
-2.255272	NNP VBD NO_FUNC
-1.442359	NNP VBD PRP
-2.662584	NNP VBD PUNC
-1.60206	NNP VBD RB
-2.079181	NNP VBD VBD
-2.079181	NNP VBD VBP
-1.50515	NNS VBD CC
-0.3488028	NNS VBD IN
-1.7222	NNS VBD JJ
-0.5843312	NNS VBD NN
-1.50515	NNS VBD NNS
-0.9822713	NNS VBD PRP
-1.50515	NNS VBD PUNC
-1.380211	NNS VBD VBP
-0.7399286	NO_FUNC VBD NN
-1.176091	PRP VBD CC
-1.740363	PRP VBD CD
-0.5099137	PRP VBD IN
-1.615424	PRP VBD JJ
-0.384975	PRP VBD NN
-1.957413	PRP VBD NNS
-1.740363	PRP VBD PRP
-1.217484	PRP VBD PUNC
-1.615424	PRP VBD VBD
-1.615424	PRP VBD VBP
-0.4449366	PRPS VBD IN
-1.290035	PRPS VBD JJ
-0.4771213	PRPS VBD NN
-1.113943	PRPS VBD NNP
-1.290035	PRPS VBD PRP
-3.084005	PUNC VBD CC
-2.717652	PUNC VBD CD
-2.199572	PUNC VBD DT
-1.069239	PUNC VBD IN
-1.747275	PUNC VBD JJ
-0.1742665	PUNC VBD NN
-0.9208187	PUNC VBD NNP
-1.344255	PUNC VBD NNS
-1.655504	PUNC VBD PRP
-2.199572	PUNC VBD PUNC
-2.074634	PUNC VBD RB
-2.500602	PUNC VBD VBP
-2.676694	PUNC VBD WP
-1.20412	RB VBD CD
-0.3912066	RB VBD IN
-0.50515	RB VBD NN
-1.20412	RB VBD NNP
-1.20412	RB VBD PRP
-1.243038	RP VBD CC
-1.066947	RP VBD IN
-0.4301247	RP VBD JJ
-0.7659168	RP VBD NN
-1.243038	RP VBD NNS
-1.65035	RP VBD VBP
-0.2730013	VBD VBD IN
-0.69897	VBD VBD NN
-1.583403	VBD VBD PRP
-0.09691001	VBP VBD NN
-1.663867	WP VBD CC
-1.991226	WP VBD CD
-2.292256	WP VBD DT
-0.4613468	WP VBD IN
-1.532588	WP VBD JJ
-0.5889647	WP VBD NN
-1.593286	WP VBD NNP
-1.593286	WP VBD NNS
-0.6537668	WP VBD PRP
-2.634245	WP VBD PUNC
-2.417195	WP VBD RB
-2.116165	WP VBD VBD
-1.417195	WP VBD VBP
-0.4771213	PUNC VBI NN
-0.4771213	PUNC VBI NNP
-0.2618779	<s> VBN CC
-0.362548	<s> VBN IN
-1.418669	CC VBN CC
-1.594761	CC VBN CD
-2.479194	CC VBN DT
-0.5805203	CC VBN IN
-1.011184	CC VBN JJ
-0.4486327	CC VBN NN
-1.258969	CC VBN NNP
-1.030489	CC VBN NNS
-1.770852	CC VBN PUNC
-1.770852	CC VBN RB
-2.071882	CC VBN RP
-0.1249387	DT VBN NN
-0.3180633	JJ VBN IN
-1.414973	JJ VBN JJ
-0.393784	JJ VBN NN
-1.238882	JJ VBN NNP
-1.098836	NN VBN CC
-0.2018201	NN VBN IN
-1.575957	NN VBN JJ
-0.6913506	NN VBN NN
-1.575957	NN VBN RB
-0.2155998	NNP VBN IN
-1.46801	NNP VBN NN
-1.278754	NNS VBN CC
-0.1818436	NNS VBN IN
-0.6766936	NNS VBN NN
-0.1890562	PRP VBN IN
-0.6283889	PRP VBN NN
-0.30103	PRPS VBN IN
-0.4771213	PRPS VBN NN
-1.374137	PUNC VBN CC
-1.550228	PUNC VBN CD
-0.3071903	PUNC VBN IN
-0.4198946	PUNC VBN NN
-0.30103	RB VBN NN
-0.552842	RP VBN IN
-1.09691	RP VBN JJ
-0.4685211	RP VBN NN
-1.09691	RP VBN NNS
-1.221849	RP VBN PUNC
-1.09691	RP VBN RB
-1.221849	RP VBN RP
-0.39794	VBD VBN IN
-0.1249387	VBP VBN IN
-1.241909	WP VBN CC
-0.2151154	WP VBN IN
-1.283301	WP VBN JJ
-0.5843312	WP VBN NN
-1.982271	WP VBN PUNC
-0.30103	<s> VBP NN
-1.536769	CC VBP CC
-2.01389	CC VBP CD
-1.574557	CC VBP DT
-0.6681896	CC VBP IN
-1.536769	CC VBP JJ
-0.4002244	CC VBP NN
-0.8755873	CC VBP NNP
-1.119943	CC VBP NNS
-2.833	CC VBP NO_FUNC
-1.574557	CC VBP PRP
-1.630673	CC VBP PUNC
-1.888951	CC VBP RB
-2.491011	CC VBP RP
-2.833	CC VBP VBD
-2.61595	CC VBP VBN
-2.138829	CC VBP WP
-1.060524	CD VBP IN
-0.5118834	DT VBP IN
-0.3357921	DT VBP NN
-0.30103	IN VBP NN
-1.292597	JJ VBP CC
-2.146469	JJ VBP CD
-0.4427524	JJ VBP IN
-2.146469	JJ VBP JJ
-0.5200495	JJ VBP NN
-1.40654	JJ VBP NNP
-1.50345	JJ VBP NNS
-1.026329	JJ VBP PRP
-1.176091	JJ VBP PUNC
-2.10551	JJ VBP RB
-1.170017	NN VBP CC
-1.948168	NN VBP CD
-0.3888603	NN VBP IN
-1.471047	NN VBP JJ
-0.545907	NN VBP NN
-1.436285	NN VBP NNP
-1.550228	NN VBP NNS
-2.249198	NN VBP NO_FUNC
-1.170017	NN VBP PRP
-1.374137	NN VBP PUNC
-2.249198	NN VBP RB
-1.226501	NNP VBP CC
-1.863323	NNP VBP CD
-0.4059457	NNP VBP IN
-1.437354	NNP VBP JJ
-0.4891858	NNP VBP NN
-2.446726	NNP VBP NNP
-1.738384	NNP VBP NNS
-1.340444	NNP VBP PRP
-1.261263	NNP VBP PUNC
-2.039414	NNP VBP RB
-1.070038	NNS VBP CC
-0.3296752	NNS VBP IN
-1.371068	NNS VBP JJ
-0.5751879	NNS VBP NN
-1.496007	NNS VBP NNS
-1.496007	NNS VBP NO_FUNC
-1.371068	NNS VBP PRP
-0.60206	NO_FUNC VBP IN
-0.4259687	NO_FUNC VBP NO_FUNC
-1.176091	PRP VBP CC
-2.021189	PRP VBP CD
-0.4031412	PRP VBP IN
-2.428501	PRP VBP JJ
-0.5160393	PRP VBP NN
-2.021189	PRP VBP NNP
-1.243038	PRP VBP NNS
-1.720159	PRP VBP NO_FUNC
-2.062148	PRP VBP PRP
-1.280827	PRP VBP PUNC
-1.845098	PRP VBP RB
-2.021189	PRP VBP RP
-0.314394	PRPS VBP IN
-0.5185139	PRPS VBP NN
-1.041393	PRPS VBP NNP
-0.9199705	PUNC VBP CC
-2.272683	PUNC VBP DT
-0.5459827	PUNC VBP IN
-1.302305	PUNC VBP JJ
-0.4953279	PUNC VBP NN
-1.190332	PUNC VBP NNP
-1.254001	PUNC VBP NNS
-1.491362	PUNC VBP PRP
-1.453573	PUNC VBP PUNC
-2.272683	PUNC VBP RB
-2.231725	PUNC VBP WP
-0.7399286	RB VBP IN
-0.69897	RB VBP NN
-0.69897	RB VBP NNS
-1.198532	RP VBP CC
-2.581913	RP VBP CD
-1.938895	RP VBP DT
-0.5497288	RP VBP IN
-1.160744	RP VBP JJ
-0.4599678	RP VBP NN
-1.427011	RP VBP NNP
-1.540955	RP VBP NNS
-2.581913	RP VBP NO_FUNC
-1.323471	RP VBP PRP
-1.637865	RP VBP PUNC
-1.586712	RP VBP RB
-1.762804	RP VBP RP
-1.563231	RP VBP VBP
-2.239925	RP VBP WP
-0.1760913	UH VBP IN
-1.068186	VBD VBP CC
-1.591065	VBD VBP CD
-0.405428	VBD VBP IN
-1.466126	VBD VBP JJ
-0.7459666	VBD VBP NN
-1.290035	VBD VBP NNS
-0.9542425	VBD VBP PRP
-0.9890046	VBD VBP PUNC
-1.385036	VBP VBP IN
-1.385036	VBP VBP NN
-1.446511	WP VBP CC
-1.747541	WP VBP CD
-2.349601	WP VBP DT
-0.4649947	WP VBP IN
-1.680594	WP VBP JJ
-0.5479689	WP VBP NN
-1.747541	WP VBP NNP
-1.411749	WP VBP NNS
-0.6623697	WP VBP PRP
-1.87248	WP VBP PUNC
-2.349601	WP VBP RB
-1.674427	CC WP CC
-1.457377	CC WP NO_FUNC
-1.674427	CC WP PRP
-1.457377	CC WP RP
-0.3781959	CC WP VBD
-2.04078	CC WP VBN
-0.5031347	CC WP VBP
-0.8538719	CD WP VBD
-0.3357921	CD WP VBP
-0.4074853	DT WP VBD
-0.2825466	DT WP VBP
-1.50515	IN WP CC
-0.7092699	IN WP IN
-0.4839607	IN WP VBD
-1.80618	IN WP VBN
-0.3912066	IN WP VBP
-2.271842	JJ WP IN
-1.79472	JJ WP NO_FUNC
-1.342423	JJ WP RP
-0.3881802	JJ WP VBD
-0.8653014	JJ WP VBN
-0.4175356	JJ WP VBP
-1.963	NN WP CC
-1.963	NN WP IN
-2.26403	NN WP NN
-1.741152	NN WP NO_FUNC
-1.963	NN WP PUNC
-1.56506	NN WP RP
-0.3502165	NN WP VBD
-0.9929636	NN WP VBN
-0.4358002	NN WP VBP
-1.352924	NNP WP NO_FUNC
-1.864808	NNP WP RP
-0.2966059	NNP WP VBD
-0.8436183	NNP WP VBN
-0.5530538	NNP WP VBP
-1.826075	NNS WP CC
-1.525045	NNS WP NO_FUNC
-1.348954	NNS WP RP
-0.3562528	NNS WP VBD
-1.085712	NNS WP VBN
-0.4369087	NNS WP VBP
-0.30103	NO_FUNC WP VBP
-0.544068	PRP WP VBD
-0.1760913	PRP WP VBP
-1.190332	PRPS WP RP
-0.4121805	PRPS WP VBD
-1.01424	PRPS WP VBN
-0.3774183	PRPS WP VBP
-1.872156	PUNC WP CC
-1.696065	PUNC WP NN
-1.872156	PUNC WP NO_FUNC
-1.913115	PUNC WP RP
-0.4097583	PUNC WP VBD
-0.9427373	PUNC WP VBN
-0.3878564	PUNC WP VBP
-0.30103	RB WP CC
-0.1760913	RP WP VBP
-0.243038	VBD WP VBD
-0.7781513	VBP WP CC
-0.7781513	VBP WP IN
-0.6532125	VBP WP PRP
-0.6532125	VBP WP VBD
-0.7781513	VBP WP VBP

\end\
